kp_id,dim_0,dim_1,dim_2,dim_3,dim_4,dim_5,dim_6,dim_7,dim_8,dim_9,dim_10,dim_11,dim_12,dim_13,dim_14,dim_15,dim_16,dim_17,dim_18,dim_19,dim_20,dim_21,dim_22,dim_23,dim_24,dim_25,dim_26,dim_27,dim_28,dim_29,dim_30,dim_31,dim_32,dim_33,dim_34,dim_35,dim_36,dim_37,dim_38,dim_39,dim_40,dim_41,dim_42,dim_43,dim_44,dim_45,dim_46,dim_47,dim_48,dim_49
K0,-0.21255332053949275,-0.07990274797013523,0.0006990381663691268,0.00626298794462947,-0.05999827580476213,0.08303219063470436,-0.14232459283393306,-0.018980624270443582,0.016036623440221984,0.06857989560738953,0.09486545497929504,-0.14992615671216852,-0.2045129230404309,0.17032723283051066,0.04430081623237362,-0.09978081968579178,0.2067842346061734,0.015420597783489386,0.15721223286177807,0.009000895927981107,0.2747185247399341,0.23400467414245524,-0.03318943707645454,0.12952022666316182,0.08603513638516416,0.18245241829824324,-0.12863404901533443,0.09145759299854314,0.14109868075814852,-0.23445774773239006,-0.15774031799844015,-0.27185025820590825,-0.035914653713749564,0.09565563433097708,0.20027937818163408,0.009877583047434428,0.2171109113568512,-0.1839814719764616,-0.2270780939082379,-0.007405069639680005,0.051199805790040624,-0.004358540340962563,-0.27561092594122677,-0.01188060193297049,-0.1738989676611972,0.08927411861106455,0.04887125112390488,-0.12529547414078895,-0.06850365332842852,-0.14120386710305022
K1,-0.008371008998504023,0.12756254170224213,-0.13164710346692365,0.06731714559760366,-0.07081772852559766,-0.10589089349214843,-0.014294272656607272,-0.13826017242775518,-0.07394176876667433,-0.15998071213865853,0.26239579832413595,0.0047095686395742554,-0.09345074799594857,0.028577752969999263,-0.015001797340001155,-0.029511249947120274,0.08202407495178757,0.1011677597972731,-0.07085025269285772,-0.07690250631612912,-0.03673410007606671,-0.3074294880136412,-0.20235897720157278,0.18255075919064337,0.21969109529376923,-0.033259619534605836,0.07700116523464624,0.04156852854970702,0.4111951204493771,0.14952307971623596,-0.01708383425954007,-0.1276157120106507,-0.21454643074838434,0.02717326829532815,-0.10101324317429382,-0.18994687414385875,-0.08635203229864563,-0.14444445539973236,0.22532356755859403,0.11774602155959343,-0.0010647736662891421,0.19765162937715627,0.010332803561203332,-0.11502746710224586,0.2034184586464964,0.07197328968232257,-0.13852779107026003,-0.025420385045705273,-0.11694182905016899,-0.18467765961246468
K10,0.05455825916913182,-0.05820839303458462,0.004253813502916837,0.18919218282610856,0.028279867918520173,0.00687193015672434,-0.20123882577541058,0.11043461645127675,0.09552222088420939,0.3201300690949558,-0.04554667860420754,0.03243104419531301,0.03690513883427016,0.23344002072632436,-0.014102345432932113,0.04129110611040413,0.08995979510021809,0.027615421728289288,-0.06606564743979577,0.028722481068819153,0.1588818009096819,-0.15190925515482614,0.019677567562237774,-0.10360764381867307,0.1768494277478498,-0.2254093906832571,-0.0827122611397015,0.055821842119140756,0.23167466607113732,-0.009730077273629888,-0.08216141211988161,0.2783837410040618,-0.2142848851763506,-0.32539113181438933,0.06511570495180286,-0.07429668443567808,-0.15112752501496707,0.1048263969909655,0.03607894091441803,-0.08347538969281082,-0.18946633107672864,0.1291109279807568,0.09622026744380593,-0.014676577742880382,0.27327527487597036,-0.1583568992088035,-0.22575541988324213,-0.10239227763246794,-0.006746063886249352,0.036010680520401205
K100,-0.19702885820814212,-0.06590877065502929,0.08864151122333462,0.015110788418013372,-0.14125514394254654,0.001040603613272183,-0.2540541214094248,0.19080864133019318,-0.03405292107431332,0.1855472874258473,-0.08734212252763306,-0.08685182535575078,-0.1267648226845388,0.14534147283617432,-0.11768185008968271,0.10692677120586928,-0.06344196369728652,-0.3277767186265455,-0.09460483083661442,-0.19559281360673964,0.005623851172594438,-0.1974672006552156,0.15360258971346763,-0.015107844692379736,-0.029459976511926868,0.10880069114074926,0.15989479760585104,-0.003334020881818621,-0.1279282381428543,-0.294269604979161,-0.11380329694780471,-0.10238439393762189,0.017758903036435642,-0.057253650485216016,0.11411568839684016,-0.10168288309863478,-0.009462102104179785,0.1964021897812555,0.056702645732398575,-0.00995914671601516,-0.0998517401531807,-0.10504168238242272,-0.14110141665492154,-0.08974329393186456,0.12535135091596758,-0.03680726735657779,-0.22390303888565496,0.2933074358654046,0.05307646171061446,-0.23338656701709729
K101,-0.0633484057661154,0.01589791247704632,0.24438939405427024,-0.15887139995705013,0.13993611780415555,0.2006460321033996,-0.09013091477479926,-0.03978745731705578,-0.14857688828568866,-0.029170465578084476,-0.005245948102946069,0.09457480411480863,0.15630089975091052,-0.10725542177871243,-0.2820577323129068,-0.0030458892508964334,0.042084824494553245,0.035759310276895995,-0.04683553169488279,0.01788585677696678,0.217271123040041,0.05472968143486672,-0.05353027478203981,-0.07171395544308266,-0.02435193436293152,0.23466135333435256,-0.026280040548686316,-0.002837938696383093,-0.06914986981856826,0.1575625499244374,0.2809841961694922,0.06460492837935033,0.011867249578227136,0.0052735985027722995,-0.34184089767989767,0.10683316490651618,0.019235598496899237,0.06141190882003909,-0.10200318022612394,-0.05512003960516781,-0.05892913358461835,0.1464713012639606,-0.05430324786997346,0.29859348529342844,0.06177325702605622,-0.1828961389107578,-0.018429834820480804,-0.0934314366764252,-0.3146112223747541,0.22931804940246725
K102,0.09462587909619354,0.07175673233686836,0.022259308492659155,-0.185985940988603,-0.06508310083462589,0.11328321220434613,-0.1414686403807045,-0.34071455335729567,-0.030562943278111487,-0.019077117885700264,0.018243537663109505,0.09804088494329793,0.0858062297137227,0.034824120053164744,0.16088943818933527,-0.2044163767650968,0.06790443601965453,0.08431682035773971,-0.16681492581077548,-0.20224981988062787,-0.10038566184572077,-0.08902738320871945,0.10139192948987204,-0.08270196888084269,-0.11524367605356416,-0.08231102023336781,0.15054069644338156,0.0017553208527292946,-0.024122826930282282,-0.01480406374948825,0.1738798858549433,-0.10082028744843612,0.17703541033873324,0.02832768057107575,-0.02158854589505946,0.3365603614339337,-0.1420633921757431,-0.04759749825002233,-0.16585526039045415,0.12817820833756083,0.22732373339506992,0.22473097803792522,0.16471372414683594,-0.026594906963747993,-0.0491525494500886,-0.22489879269992746,0.2739790461078032,0.06311303932987886,-0.0662054303438119,0.17872414633507938
K103,-0.1446807239179136,0.06047750432782867,-0.02567538976617786,0.09499140784398322,-0.009455387725394579,-0.21579867894220806,0.011240587131416537,0.15599913516942998,-0.004345399813012552,0.11528403326711664,-0.15550316675681797,-0.003905807125444596,-0.09288437559119275,0.1110995794327729,0.004683787234085247,0.1026356917104837,0.16177680122804958,0.10286546682122245,0.04062131390292131,-0.14846560467295214,-0.00041438241347997636,-0.07928733413738528,-0.05117314773757387,-0.055705025346742196,-0.1457457988058497,-0.29111790073469684,-0.09937391655151467,0.02876161559472205,-0.20051639172822225,0.00233244252465502,0.2826297696213093,0.1521607341475217,0.2444463909114453,0.05817303510163387,0.1736454850692595,-0.10767635896505352,-0.09583369322793918,-0.407396426482122,0.17641719336966374,0.22909469314395783,-0.08227488043903046,-0.03777061774839217,-0.1121230415623869,0.056912635980926794,0.16731290277259256,-0.2592050865966868,0.06089640605982649,-0.041149807101623144,0.016865317798202464,0.06826686550759585
K104,-0.025856709142976515,-0.01423156446331987,-0.02938382752330351,0.13330955735723707,0.057532487678394466,0.030305475392316695,-0.1746131941824462,-0.052012218181196584,0.12346613171523163,0.005179047271160976,0.09061154303314442,0.24269707723523748,0.142691748421385,0.012798814180367988,-0.07020365110629954,-0.3508264272126828,-0.023134025216850453,-0.04479012246747495,0.0536315321605147,-0.021144692467412216,-0.0440169816588411,-0.24446761102275916,-0.1291400627992191,0.06548601285424406,0.23574468441383015,-0.013398792799978947,0.04503722501430752,0.130858828556921,-0.11140689138169194,0.050395755169993985,-0.10173426777850762,0.11881628161467456,0.020800923727527284,0.04100362246966935,-0.10751945852083232,0.09713758331897095,0.28641401249822535,-0.13847471754576987,-0.04667872476430964,0.03182002918746783,0.10804257811106657,-0.07687480377566779,-0.3892236502518789,0.18673598307198896,0.10448422275376303,-0.23945963527955688,-0.0834725077731688,0.21544905171159764,0.19890948881643442,0.1289576384589936
K105,-0.024322804653921042,0.011461353018207904,-0.018082100795710293,0.1558206608937355,-0.1209621790001254,-0.11128860782431939,0.13952854361227843,-0.006126739562393611,0.190379472105595,-0.09274223214037024,-0.007565413343199803,-0.12739401946890908,0.001016856436356394,-0.20420141560516497,-0.06734682028932683,-0.19836033949793325,0.09583740833185536,0.0989678135504536,-0.23896576435439082,0.18422232711776879,0.34491681759109455,0.006353920233001802,-0.08854398614376688,0.39006695721845913,-0.18216211318843653,0.002776894594785242,0.024807546806804852,0.18577769932137458,0.04968337908727554,-0.06886609064667307,-0.13136762186866308,-0.047208849331951803,-0.13906625983341264,0.006605132212863862,-0.07792086657755609,-0.20634085041402495,0.17334758901686756,-0.06873331596647651,-0.17514177215273632,-0.023238189191746795,0.009442764519926216,-0.2412036904249091,0.045803701874150456,-0.1446224347278794,0.23630937661484763,0.07236393759974581,-0.05522999780214637,-0.10291476702864458,-0.01449704026361823,0.08463223842933588
K106,-0.004067680120213333,-0.03464847052009623,0.00931319032056908,-0.0963478693455642,-0.05475974285974532,-0.3327957027545024,0.15536153034341557,0.04767426299419769,-0.12340766816654733,0.3029500110741617,0.013883793134570166,-0.1653204421294533,0.13669554407054163,0.06351002787838254,0.06295665911562102,-0.06793084153957243,0.0718782167324931,-0.0417644788240186,0.08870246273783843,-0.3039407548210196,-0.06922607510001862,0.27477605409683314,-0.12238837773046378,-0.0963445771573629,-0.07147384641712985,-0.19382669826714974,-0.35233915853580766,-0.036790891131325304,0.021676860875386547,-0.008377372962224013,-0.02311589683526733,0.0068673261033299305,0.16319804405364854,-0.030386375509396938,-0.09159694469943135,-0.044854584550439024,0.09243686402133955,0.22529397872385765,-0.10022259799608388,0.01578524236943078,0.05398614961439214,-0.15836939914375933,0.0032576326311962124,-0.2338535475845974,-0.28225835325689974,0.05851571147283836,-0.06124859881932818,0.03227456824184833,-0.0028552080917485538,-0.15578814761414428
K107,-0.0061063177000434165,-0.1663865753733817,0.1876886563542339,-0.18296571504025352,-0.026417976051545396,-0.14063726916749028,0.07696887933698639,-0.044721168175366324,-0.06998547393223258,0.115125401787403,0.003971170365748063,0.06971260162921347,-0.1324136640178566,-0.1895567536714122,0.014465936889428925,-0.04302302896387984,0.08452697229405835,-0.010782320745129255,0.02767151672779513,-0.21904855552370514,0.2548132533094841,-0.02216173262559055,0.09412779513556174,-0.11281670787330694,0.04156082927056518,-0.17579729870078611,0.060999059151566074,-0.04803280037232656,0.003938774505800865,0.09418002243660377,-0.1663108785624989,-0.09236080966331521,0.06170832895534403,0.2831201979147322,-0.018631921554578493,0.07976401763656696,-0.014434026190731345,0.26207383913330984,-0.235758593719936,0.012767541090710781,-0.21934021459799397,-0.33822027261974136,0.040137571925781226,0.01882291461270506,-0.038434021939661375,-0.01432913167373074,0.4180641365148768,-0.03483645414119725,0.06883282430871424,-0.08762101545436754
K108,0.03580382597311011,-0.02889138179095824,-0.04978492739962397,0.22058381091818696,0.14276109455136363,0.016583715957546197,-0.27943936453609436,-0.043780776569946674,0.3278050482849645,-0.027973099411200995,0.13379082560538555,0.1748691004563405,0.026554474676853877,-0.10209047969608942,-0.29533834098534645,0.08297072386023381,-0.09880814179000813,0.021362345004118388,-0.15156982568795727,-0.032166229418365576,0.00408922075583638,0.03257322750337395,-0.13519815549296457,0.14515332973967351,-0.0723873948999746,-0.20306842207744305,-0.01322162893044007,0.004168806853329081,0.01947520905378185,0.16519027931510438,-0.028674928574093636,-0.014506665510332912,-0.1337868004453461,0.09951122370213958,0.022351766754097734,-0.05093814478247497,-0.2309861682805346,0.17516862039386386,-0.1488847895325016,-0.07170623006722213,0.04345761815483923,-0.14511051782495551,-0.18112284588636487,-0.25757811317590557,0.08743767324938925,-0.06611653008286811,0.3549996776364903,-0.12058871118958332,-0.1117473980676286,-0.06856706619089813
K109,0.031049986111367,-0.060048235947632735,0.07819908161381142,-0.12497254206968306,-0.17643886942171613,-0.2296445262075246,-0.28396588299071646,-0.06616101620835357,-0.03843727877575205,-0.08063889914166328,0.15879156639132208,0.15682799694248742,-0.042756669567629635,-0.22909620028362945,-0.072372182913733,-0.0766013628942246,-0.08392070410697017,-0.08910355565453572,-0.08345175567420353,-0.049364052188506057,-0.08116301758869283,0.026604232933496758,0.0460215908647149,-0.11629570985384709,0.1623238805536729,-0.12516077086210536,-0.20660438784966614,0.048628007474555694,-0.10438870265708096,0.04103115493361161,-0.30696519440220926,0.17782630624627618,0.08585654303590691,-0.19162128897423375,-0.18885012147314303,0.2135599841460901,-0.09416854108835879,-0.10653120573333053,-0.2893906095405934,-0.04479681601084232,-0.029081378275377955,0.09137344367801972,-0.17867204384787108,-0.19415119476685785,0.0575910642544122,0.12856643044855465,-0.2006470803319438,0.13811686918809274,0.004794354207124368,0.1394311337282396
K11,-0.03507054077188442,0.05118129208018233,-0.18194694770643308,0.20989235963352576,-0.011943016632243217,0.16243081305575136,0.04982490321101099,0.06640210645691383,0.08283192325987053,0.06508720730861883,0.09343808282747282,0.1932302260876116,0.028569956563701083,0.10307391610061802,-0.01304564231881044,0.20936210767791802,-0.09833291099992143,0.26181805258047025,-0.005838103382648248,-0.20800396507935,0.018623630091248188,-0.09901028118879761,0.12221151398929264,-0.09487750744320743,-0.06486548663308672,-0.2746986326738415,-0.06575562273552336,-0.3523799862510399,-0.2302654463987352,0.11054795638274563,0.11423846313609516,0.06185239014381707,-0.14057755940137856,-0.006936206285777263,-0.0005237317968996627,-0.16840134274301788,0.21856181827472682,0.12754963025333907,-0.032123444298837636,0.003908623449673365,0.030294383962437315,-0.29682439095028224,-0.03593428175127513,-0.09914585981766469,-0.14561403343722065,-0.04086594421351698,0.2613450045369708,0.09316478595343626,-0.08303715550330908,0.0832412366429459
K110,-0.008401082425922893,-0.30176239808428496,-0.018181200969301325,0.12683437412602336,-0.10692673480866453,-0.04641567789912949,-0.021072407622497468,-0.3468944701142206,0.1999580811057779,-0.10783953855946311,0.06050559926051996,-0.010372823145029393,0.1504600820124767,0.04858008247669205,-0.02810606676245131,-0.10689910702293091,0.09545393047015531,-0.2241363398663604,0.07727357908133892,-0.13148843651672257,0.14982176162814181,0.01929768978522004,0.07706221883872263,0.009809046379977867,-0.2096523586522049,-0.10297663657379202,0.08044387874829974,0.019938508263708566,0.1412922594562083,0.04824729994452343,-0.11565509048327959,-0.09524018807044271,0.012312916968245744,-0.27684954214893215,0.20020864194188945,0.052850066041873804,0.14680099285277148,-0.18910161814169893,0.14889832906874695,0.2669739357607569,-0.15802835101266746,0.09228961404400607,0.00013279249215806995,-0.18477427031280239,0.058968065450716915,0.09973131842386095,-0.07191808199556067,0.13948889719048244,-0.1994096364974593,-0.17883088781632014
K111,0.019912939635949402,0.003700623322464473,-0.1044608834466375,0.11802132144337991,0.07739288429684703,0.12509807705415593,-0.01795062338917385,0.08784314261885491,-0.06496615506269254,0.299402250113227,-0.11845156199462285,0.3069067345525202,0.005085906516879403,-0.2005196745846947,0.19943631725956248,0.01835369361462024,0.12407544609981638,0.17841166681105286,0.04926659487406691,-0.08633587882016931,0.1422378626457203,0.00011013661185140274,0.09998320452544525,-0.3139672372460623,0.06516024636360708,-0.09309197246168426,0.24101671091729332,0.0908326303950484,0.03496606061722909,0.07089345664463972,-0.1455510359308566,0.23663564266958637,0.29029864562085617,0.05727827374726203,0.2318463695541579,-0.0829694715278211,-0.11620188114729615,0.00596594135300293,0.06340497638983005,-0.05743471877445005,0.07839494645403856,0.04466494573575948,-0.1455314903248929,0.07562877751469235,0.1258837014655675,0.024996510042363092,0.16803111071637158,-0.1774710868241235,0.06821702909023754,-0.17060156208069072
K112,-0.15169583867887407,-0.08590896999121225,-0.12827304628803446,-0.07461635068402339,-0.029159190885481634,0.11398884917097052,-0.043729741428425964,-0.21590238418554678,0.15523421772282994,-0.11398008675949575,-0.007995506227072771,0.0608014212072778,0.027179406247919563,0.1489859630985894,0.06522215189205155,-0.11727786134176146,0.29663795525837505,0.0264608841056434,-0.020062178658058573,0.13125026677244744,0.03396580525511654,0.05435981412365754,0.33934141256019906,-0.03746115621561927,-0.043267042358348724,0.015873593989323313,0.14590003441358776,-0.20513308253398027,-0.2676345378407707,-0.0799429437713145,-0.2224786473442716,-0.0578459975869148,0.06842149568062682,-0.1212863808466529,-0.1942799353158806,0.009441104835201653,0.11744587262748328,-0.230791418772127,0.11168469937415311,0.11128626210043151,0.12991038641218197,0.16591102323238352,0.29983119869591474,-0.04848629910459773,0.014919514281830882,-0.05670319938739945,0.0002691716551529526,0.2087195046872873,-0.18314021562903496,-0.11724247174414958
K113,0.20136645544949086,0.14914607832525253,-0.053095806544261735,0.12492759515776337,0.049891356265956366,0.21936477060318293,0.010894525481858333,0.14996424790041119,0.3863055024719872,0.0874519125750655,0.007212587421623505,0.10563360616460109,-0.05341005652224314,0.34916007028810353,0.02632934106827244,-0.039907330845985994,-0.12219144800690399,0.160431599781056,0.12679703218572524,-0.07272137176699427,0.08428664747641092,-0.22057564123506265,0.027045733844873084,0.06620040938943374,0.24963963915068052,-0.11270635977089159,-0.18691613487608727,-0.13092626380632713,-0.19542825074021472,0.19544124315688055,0.22643648146937284,0.04682091914616602,0.17857336516375907,0.019586913789019438,-0.0139068838827196,-0.04869556577685876,-0.045384257130215384,-0.22631399032012586,0.038638383434431704,-0.005897479640427121,0.10898397084973786,0.013674670103178228,-0.023789951490786748,-0.12738271915830973,0.010549987414785597,0.10794239922286772,-0.16717492517439558,0.012790098422549561,0.034074704254973005,-0.10499285636883096
K114,-0.09399505395767935,0.03687343146961553,-0.1812279104293283,0.055950915591669544,-0.14316233739555045,0.16994457555645476,0.37380605300460834,-0.13763037215882887,0.08541695722117403,-0.11620211264618936,0.16644296049339383,-0.20230799846738842,0.07684323177724295,-0.13958622942738594,-0.03309571992045583,-0.16485538312695136,0.13148940691563457,-0.13382864642300432,0.08825610936796059,-0.05501941964934923,-0.018303515117663954,0.02362537302515533,-0.12181165791880295,0.03363656734325828,0.24469224664062458,-0.12441316146125357,0.18736612455388849,0.2395377351878423,-0.1304987827655026,-0.2326553869967602,0.0482819200334959,-0.08752751175708548,0.2987795809015052,0.0055655380746964436,-0.12826736060079458,-0.18342462134940596,0.1742699271627574,-0.09132923814129561,0.007007988747910078,0.15282770610720217,-0.07743029978443258,-0.007343772108253629,-0.002649199408526281,0.10925990551485508,0.09445683448130494,-0.03519499897064415,0.01017714179429806,-0.05944545964162442,-0.23626225789764346,0.04118898834379434
K115,0.26325520153209087,-0.12294930423857611,-0.10754940181229693,-0.12114185240017225,0.10081037169946767,0.06239649229669758,-0.02205689350911879,-0.12772135366220289,0.012852117530281154,-0.21768137985761685,0.01995452603942309,0.12125268307832561,-0.1740757399378275,-0.21321486340305346,0.21974265457243636,-0.08511236044917264,0.15804115909596095,-0.021425252570214104,-0.02253230822345992,0.0609950988843775,-0.12298822032945786,0.01843394677821438,-0.05307552588520967,-0.18371645768732656,0.046952911134361654,-0.03663325842519296,-0.021846413092695218,-0.16836621405882185,0.2214069594876544,0.12197472507834346,0.13414023718415177,-0.042495643603686746,-0.24057624575093264,0.27170378274792395,-0.008500320694828523,-0.10417836357223124,0.05798840517154385,0.16237816093376747,-0.0032069576209519867,0.1778844884947692,0.1506746689077528,-0.1497538210874172,-0.09374248092995628,0.13321939356859952,-0.37739798996376583,-0.020793341054896674,-0.1990674328780874,-0.06630156077945971,-0.04157398017872487,-0.04984151070516139
K116,-0.07776276194111988,-0.15448652266463989,0.3227192738038609,0.26295345311330104,-0.16362807891160108,0.22277457964693662,-0.05624790752656164,0.018190620283496106,-0.008909475111124674,-0.09289783835920533,0.13853420874339656,0.017725821377796155,-0.06710221789911752,-0.18369653485750678,-0.12582526124690477,-0.23111933110677058,0.0017211725100184242,-0.16850000107732735,-0.03739302519766557,0.19292120146003974,0.16887088642998205,-0.00454484254091543,-0.012262219740878282,0.2647012378771564,0.07332658965648096,-0.04615774799449728,-0.20079465459718784,0.055460471256966584,0.11677536103206941,-0.0889415416030027,0.04100365621845163,-0.05119400188311798,-0.025913220588300732,-0.3503050660788334,-0.031228579651698323,0.1364948817390804,-0.08890648480173538,0.007396129008751055,-0.10644385174377335,0.05075304515750793,-0.030488182541009254,-0.13225265407244755,0.18763380946596642,0.13080099092858588,-0.08517566731320912,0.07009253981561996,0.07567186993430496,0.09044110525877874,-0.2385646601198441,0.14173818010815908
K117,-0.08947731841801225,-0.056200706027189094,0.41430755689618487,0.047412444758508476,-0.060676078766406266,-0.34636507987158616,0.21827732896059743,-0.21127957375204523,-0.157600817492011,-0.0520424243389206,0.22246262876472234,0.1214456142681293,-0.024790069923515384,0.048420567596421986,-0.09429699773150217,0.021934106366133833,0.011518320536436156,0.15215567882465209,0.15190567380352935,0.07758443387700655,-0.056910561356890293,0.11651112949871895,-0.014444631762369877,-0.16992622906176483,-0.06334066326116228,0.01327586731796481,0.14295912895086021,-0.028825063353541947,-0.1899175971123212,0.008911888548734098,0.017819485172400285,0.02918778824869963,0.1444756650319621,0.16003279824983987,-0.09332717609751116,-0.09677192337492037,-0.16337433861592326,0.10975647897279794,0.2275527016907222,-0.04948698843768695,-0.03791925371392142,0.23037389645159911,0.07940327077046673,0.06851548555281212,-0.18704618113930002,0.10660150628021134,-0.14593080487031948,-0.17811000523549078,-0.0544641868985046,-0.09200501572583364
K118,-0.03520402715076112,-0.22891889235831073,0.1523205859067252,0.1791478054149236,-0.3093609741734003,0.1554408964874677,-0.12876313737658351,0.13614183970425575,-0.010873625944700512,0.0045713769687144995,-0.029405197032647927,0.19256267268095556,-0.19692486566730227,0.09656343546654154,0.17496078744295182,0.11380004703754476,0.3693090097632896,-0.08403015287517764,0.1520804668059707,-0.016853893311384475,0.19594278376750573,-0.0012214981382909862,-0.06161917142396086,0.20748675422837307,-0.0780910817387458,-0.22443007473873308,-0.08210792780437205,0.09834152849079746,0.2211436714377167,0.01765436345046537,0.20941294830636403,-0.21576395646152133,-0.07041823362479963,-0.04584395428666667,-0.018199272369531318,0.013359500045350386,0.1097602962417948,-0.07066341878879107,0.022086536192276133,-0.007168364832347774,-0.14708979362834448,-0.018057449129903338,-0.022822206524239507,-0.02622521979805838,0.005045407552973113,0.012021737600950964,-0.06867577712446984,0.20218748123383234,-0.18578738538879366,-0.11453558789373018
K119,0.32665304827752234,-0.12196671828310275,-0.15906974007165187,0.0863029521512569,-0.24406705395740633,-0.027645304133838648,0.252140080804796,-0.18153404021817166,-0.23288604757379358,-0.1761577400771273,0.10555961556215801,0.13216422726307328,-0.06023053380516933,0.08027925705333486,0.1633586629187263,0.21001791157050462,-0.028945044386389118,-0.2704289889085795,-0.09645543558030699,-0.05015061710822742,-0.030425990643409458,-0.02207397444066445,0.13147306242806947,0.14974869698350704,-0.020172106525002977,0.12907486634804521,0.042026152660102095,0.0075796217202487096,0.10652132630003555,0.008489805980033875,0.24179823358885974,-0.16901710087703134,-0.06053393760477017,-0.014866303643185424,0.05163684864831791,0.14898869704575987,-0.002866895916136542,-0.1671157299734923,0.09899760201720845,0.0887096435849904,-0.2281735073377264,-0.0004469957264166888,-0.18684585354256011,-0.0780982546491731,-0.10608242691913806,0.09509073364870614,0.013727853196207417,-0.15106032883879797,0.1034100687434718,-0.1684759609597745
K12,0.19834255548690383,0.1310562011361543,0.008451919823495005,-0.09169585537298229,0.09896513259027319,0.05577203250212448,0.12688335377324156,0.09002830519326752,0.14876203874444444,-0.07586344174750505,0.18672547283531798,0.028007473679103286,0.2941443853483612,-0.09768445491148611,0.24605292404664839,0.02805157969455199,-0.09233101765930515,-0.06858525745567255,-0.045405550362262986,0.0601206495221321,0.07410592340227797,-0.081315384132594,-0.003451983635172757,0.30364221009321035,0.2448593960571387,0.06184386711192264,0.00538655639603709,0.017013061483411234,0.08695912372725952,-0.14496909492085988,-0.036480167097117384,-0.23650262156771926,0.05658529082516353,0.09173258860848436,-0.068486129544718,0.22309453965116238,-0.17373819951071556,-0.20755831459107205,0.03181346648102417,0.14841415394274643,0.23867740307191743,-0.0650415719913173,0.1528906148244042,-0.005458133115410491,-0.024467936395487833,0.12524864348267578,0.09245927326565885,-0.2234354765709681,0.20928263012194478,0.19561209313253994
K120,0.04735960902174546,-0.11678163151615041,-0.05246167884156392,0.07234494940102498,0.07480947593510823,0.19180759612449075,-0.011800485679422029,0.0439648190207848,-0.06279976493474992,0.0261090870352103,0.0630506449745764,-0.014103972850647984,-0.2587741565644279,0.04755430553180868,0.05230162910587054,-0.0975807459023307,-0.18426394054672732,0.21173626049217087,0.07050498320063199,-0.032864994956051344,-0.16312385106332836,-0.11790125128302859,0.18687547654179604,0.019749601152331007,-0.0789896968205519,0.07312230936780087,-0.11683722661344234,0.21531769095646658,0.19407884876822876,-0.06693681460663627,-0.09019186099590204,-0.3756091633737187,-0.21255424068987758,-0.1921663579941486,0.019395014317775357,-0.04680295442979495,-0.19300787948352402,-0.04033705802807689,0.07249793988491071,0.0757262070228321,-0.2725352419944567,-0.018401255757345227,-0.19846028924677592,0.12936605429093762,0.11249717147933956,-0.1288350246408514,-0.10990028991794,-0.06617544554878682,-0.32319587203260997,0.048199505131840834
K121,-0.039238876479783455,0.1395247980554732,-0.15796666712245305,-0.08903857239606935,-0.21665948360271856,-0.14443108319137035,-0.16998560596931048,0.14323499841060622,-0.10041985739214755,0.017858206883168897,-0.05475912336371197,-0.18256692844560504,-0.024203963776849184,0.08615947048586715,-0.17369275749506333,0.11636177918741772,-0.12220179852371509,-0.06945986962578914,0.07631968383835067,-0.09541143399987671,0.005403792320581233,-0.04525695941433024,0.018604935680696447,-0.3423837087649589,-0.26313393361638243,0.08858470359808304,0.14916124807807934,-0.13094077112987848,-0.03509470318117134,0.04238476640259142,0.09969442383938468,-0.29160846009643804,-0.1274250274512,-0.047829584210871176,0.10112143239587207,0.3593093813275681,-0.03279042469779381,-0.20234311290398493,0.05785179731386148,0.18997774121343322,0.015533947106655562,-0.13038879006778986,0.13777297894477444,0.09542717606861706,-0.14756483149006286,0.05485435898725099,0.143420790159851,0.16997238176364943,-0.009556295587911563,-0.05149685176798036
K122,0.17055532356456696,-0.1681770705423695,0.060949750190954104,-0.19039380659643917,0.14805627852886546,-0.035860812491552534,0.17629612913727832,0.06829206339775006,-0.1699919923127982,0.19798177018999508,0.2155779204146227,0.12261213065452507,-0.10583853611724761,-0.04252702865623792,0.02021014843914074,-0.09779525375208087,0.23518689314203903,0.020057176842916996,-0.37568665817391333,0.04716057607258355,-0.04838373995859775,-0.01041260947022335,-0.05122735780115302,0.11215595105137324,0.15560399637516129,0.039336147163254655,-0.04715437441115252,-0.005744667746213834,0.0027237759715838727,-0.11151440911123228,0.08045422398924638,0.06393248677492103,0.21407647531890137,0.17445706419511003,-0.09528884697578843,0.1139975873082715,-0.1321548288819917,0.09671429677661308,-0.07179433003643541,-0.14220240133970133,0.03891814783069924,-0.3716869485278403,-0.2433346171597581,-0.02466620335457863,0.011457004892188639,-0.05132455464256376,-0.21949565299174553,-0.11366314938600228,0.05436670463262948,0.08085072487345608
K123,-0.002229811269660146,0.15900279257823968,0.05462084313932921,-0.10273518828367449,-0.038554034769279995,-0.19281908971365053,-0.014863329322397197,0.15285437457200993,0.09419074631235923,0.19270132122356134,-0.041630526687775726,0.18501674996463302,-0.026568995759141716,0.20226426776312392,-0.0030041341607950876,0.09720650043001237,0.20274908040955392,-0.026585956954532294,0.030016809205494505,0.17714980943593714,-0.018280823773718383,-0.18155206483100558,0.2945488900647636,-0.06456749699742505,0.0218204688102512,0.1588891089582749,-0.08363537748125464,-0.1385279504966303,0.03487531176024851,-0.24645213447919267,-0.03957169212435105,0.03367971488597602,-0.03710395232279399,-0.21214198115312893,0.2191142332270844,0.014230960304044056,0.19670689692722815,-0.03574108106801774,-0.1209545959711806,0.03699798426614442,-0.02965919240175028,-0.161879229221486,0.20201675077750653,-0.08552888478908054,-0.2529382345733911,0.18255181949954186,-0.06931401392341302,-0.08354328677627904,-0.24264640341770138,0.23928637166533664
K124,-0.17260026831480327,0.007823612199146334,0.12215655986018162,0.056447888018801205,-0.007984881942478539,-0.22777231905297932,-0.10838373628952237,0.025137554653608,-0.10536525872344717,0.027220182845942353,0.09125309558786514,0.12883346829001563,-0.16412723716803568,0.294026681939003,0.10272906944862077,-0.00022944384440363197,0.14583725295527994,0.31661586856811363,-0.19257635821386404,-0.03015197973584285,-0.31835914920664365,0.025786899435423567,0.048908952040475996,-0.0052419491229583025,-0.08761098933626962,-0.27433274988238737,0.04999843706139021,0.1948136210270472,-0.0791093290200908,0.05890314486109968,-0.20990011942585396,0.06119913572419562,-0.052655224758323946,-0.10205158894779584,-0.10177661439224417,-0.052685915045624594,0.05118967556067414,-0.1756363940997654,-0.05315490086504695,-0.005551103352113393,-0.14710920577189368,0.24048822367463119,-0.11424254876363187,-0.08960583979244117,-0.13094901645573193,0.2407311507268093,0.07400777627481231,-0.12536523091748183,0.14807191808191592,0.02686403256341386
K125,0.04226826600062202,-0.05659965269962149,-0.12313350059623283,0.05549697749070683,-0.08956107145805317,0.2985037473057525,-0.2085520722594594,0.25239968748772024,-0.018290348449162344,0.04914156363003632,0.13689277269169273,-0.10355370487534,0.14200114601864325,-0.44486554695028924,-0.11829855935986996,-0.15182901114867778,-0.20595848768652097,-0.03531835741886474,0.06338101236666652,0.11545121381181679,0.03957748279001941,-0.10937739264038944,0.06063159387814569,0.020420878320412825,0.15379959157353065,0.12765531779234068,0.005007455934993615,-0.14742400147846324,-0.10728359122538429,-0.09033365930406687,-0.051800132357568994,0.04404227833391329,0.11750740273212197,-0.008399105071732388,0.0026493984851045697,0.02354607761146546,-0.08476630908305922,-0.1520474477344854,-0.288428879470339,-0.11421717095307152,0.07774060997633725,-0.11549252682264065,-0.03907310958707436,0.07663743262256244,0.08555237883108288,-0.1773736635050884,0.1638227780019493,0.18523031976336346,-0.1856410464799207,-0.13536129392043753
K126,0.1453303004790356,-0.017918254816722316,-0.27084503360213014,-0.17078139938131243,-0.030426703079343167,-0.14190803456654136,-0.05044368297220194,0.003952806898448113,0.17841622303676222,-0.03543958114859694,0.13086562107639554,0.1743294163907031,0.1750065365941066,0.03474418128282088,-0.23954968821433367,0.05622730250937151,0.1279199584666958,-0.009891360043867288,0.21286447928482008,0.10491213777271037,0.0693375759079075,0.13255416856853589,0.040675946290185484,-0.30415895619087474,-0.060902175480349735,0.14607182440908267,-0.0985378307306825,-0.027266879671244176,-0.12748515087856166,0.21766437304941405,0.20516641389914944,-0.10784479631355609,0.017972487703423044,-0.08303012174901375,0.07503214527069993,0.062188711416203496,0.09903982651553025,0.04049885405240949,0.35816203756679194,-0.12542157515996344,-0.20871836462026291,-0.04796269317832962,-0.1913172598912073,-0.18210199544225023,-0.1221748785611072,-0.11252039212564459,-0.11647722340726337,0.06323021147577762,-0.061762390880614144,-0.021903376019760022
K127,0.11809168011238723,-0.10119995267441467,-0.03493572427192377,0.04830197741265032,-0.25640192371087683,-0.3149487543871809,0.04570798346833786,0.06497502069733387,0.27259929494597707,0.020877885535665264,0.10825418529295974,-0.02581396427788095,0.0392515941855394,0.22017663323842884,-0.28049282870344877,0.05462183915781606,0.2820239116390066,0.03724521818628753,0.21797337330320005,-0.08309326386133345,-0.004232166989514536,0.004427245951196037,-0.2928533418045121,-0.15426864938814092,-0.14485246424808557,0.10856140267554072,0.11517585633443903,0.04279199893809733,0.10883038337471931,-0.021677442932679817,0.15872615529600326,0.0011605948535848558,0.007641480801843934,-0.03507395521813149,0.09038799422546459,-0.055623185968472016,0.1289467632318943,-0.14951072917179123,-0.1451220202660206,0.09078103910069851,-0.011693079657223835,-0.05994054506895914,0.11754032733111243,-0.08019446692375157,-0.026438420906829834,0.1847809476412139,0.20325793320462848,0.20764967662940376,-0.03725730922771422,0.16252566212407352
K128,-0.11483748469027677,-0.10974881147290282,-0.2844403115649061,0.2024420718320495,-0.1045544834133394,-0.015312334569560186,-0.11016286017628966,0.08412539193337543,-0.045457290920571915,-0.15790235857249021,0.05344777576799503,-0.17350277585586132,-0.10133861699594375,-0.2549650934850919,-0.17232022828109378,0.02160469961689269,-0.23773824219441142,-0.17924078468184668,-0.0002866742815589237,-0.06578456460728542,0.24106622583373707,0.2219289098097958,-0.10503159863371946,0.06742198437221295,0.09067439564583961,-0.07230387770957455,-0.18098289322253938,-0.0014882963017762213,-0.020916911730921736,-0.05273402142348447,0.05352695633514904,-0.09084951035317261,-0.13940893252241254,0.013200670856288692,0.0467081537661929,-0.1423916361034884,0.11231284444505424,-0.21425469697145574,-0.06996037476447038,-0.031222891653341675,-0.07699258458721522,-0.06838076833923885,0.22642799613302098,-0.10296970058876706,0.2954243393100227,0.05289887801178597,0.011140048390586747,0.057632205406504856,0.30615909523697493,-0.12023961364405968
K129,-0.14740161284828068,-0.09930981375679482,0.004228736103304491,-0.2270415734209684,0.0029389389884913963,0.22280220146490734,0.01991907947744,-0.038505550456699254,-0.08132487493727478,0.11820774389228395,-0.1086461405703096,0.24291091034243525,0.2543518273070575,0.03377800478125013,-0.001514919143919778,0.13559308135389678,0.14403113538685888,-0.10603586312981893,-0.06927332610993128,-0.17396735746884323,0.053816375703239536,0.08770122606077324,-0.17759553188411004,-0.059885736922494034,-0.17724404171987374,-0.11824564693095738,0.07249152482439546,-0.09649652847957241,-0.03957651011854648,-0.21408830513355542,0.024600337101372816,-0.005824575491834431,-0.09590150901688817,-0.024866625085959125,0.02371950298663918,-0.1072036401577308,-0.19421635114506094,0.23754045610793745,-0.08331303567127864,-0.012729710073409936,0.13298556257879895,0.46428070962332973,-0.1637240058206035,0.059179039968656776,-0.09308521959899083,-0.07088297905572187,-0.09475072800504525,-0.1480905963392628,-0.005432270602686164,-0.19398482525730928
K13,-0.09631887210612408,0.06094249197453002,0.07606660405792577,0.04013634932394091,-0.08473134923913062,-0.10341090529184,-0.0039346004639925596,0.18056692981952407,0.08369896996880466,-0.0570640710623545,0.11881966305861426,-0.43859458324999295,0.17687725995658193,-0.26786646415305343,-0.05580560125594334,-0.17239733302726354,-0.19934414116636762,0.1787343244747006,-0.07201268887089239,0.05335174713607498,-0.00722443525693578,0.07345072574791854,0.011828387277770934,-0.19754432874046288,0.15339676763711643,-0.07602447695540367,-0.23966936081375764,-0.06591756403676875,0.2310743431270858,0.1309099775975503,-0.05368251697635175,-0.053775757527021927,-0.04952265422522449,0.31976015024962384,0.05880720172017042,0.06621418814796871,0.15863436231489755,0.03676674202778268,-0.03988512622826214,-0.03023229479065208,-0.011024558419961332,-0.005731166243198277,0.11203426416742668,0.007998189660986976,0.11280574389563935,-0.012428058670316723,0.01210758381345228,-0.3076660991957907,0.1410884119113772,0.053349375075803215
K130,0.12743079038229804,0.007402842837327531,0.056855505158534485,-0.06274430558935422,-0.04942196199432865,0.0387032138493513,-0.15666952544430102,-0.048181917445652006,-0.11569534652157068,-0.11986161859851721,-0.283963039683156,0.18025990910300166,-0.092401221786566,0.15657873412175832,0.14384871338910898,-0.17308264617754884,-0.14648922223312788,0.34461798514029635,0.2356570485623049,-0.004242075377441496,0.0346398355208951,-0.0849055907247886,0.05819033354101358,-0.09652548172342637,-0.2735344072873279,-0.17786813748207556,0.002838872042222058,-0.15223029144836112,-0.009054871160814224,-0.144638583902017,-0.10529698138177085,0.11482748255120273,0.03330839645294186,-0.001300734056324125,0.11829972400685683,0.06468509027701047,0.19469289226457515,-0.06189243868986776,-0.05782455361160834,-0.17511624120285524,-0.057736496630381856,0.1298483393208766,0.17496524551939513,0.12924743200809163,-0.24148020752960342,0.1457804684183723,-0.24744614384447583,0.1208775727158391,-0.049500103895442696,0.09455392904632426
K131,-0.1787270083017275,0.1570937346608118,-0.1965033421540388,-0.08966272245386875,-0.1338787106495038,-0.235309746865183,0.012679387823041628,0.24225847498506456,0.35772342887637765,0.013031922169863114,0.14978524596074563,0.031131848634422615,0.06691734132420274,-0.045893865159628434,0.026166504183500052,0.07209432249436516,-0.07759128294050455,-0.010394642615750058,-0.007837482315645712,0.11084901924378016,-0.1429914646143456,-0.006913577370759017,0.2564654891728457,0.15614037788682789,0.1809711689404481,0.00327714744757334,0.04305677913924346,0.13443423301897423,0.20928376204595403,-0.26177686404403533,-0.17644578101434702,0.17564135011450194,-0.03714035614614818,-0.09010078872315959,-0.16822598901387417,-0.07444676919838147,-0.18810580309294686,0.28048743805559145,-0.003009443821913347,-0.007773154565488932,0.07888124516860458,0.12908348254430296,0.12687603288801091,0.14400951330300188,-0.08461801778017354,-0.0399541513233551,0.1031535123171609,-0.07074095543504186,-0.0006849744428486722,0.05348789298091527
K132,0.10783777753422957,-0.24414774104321973,0.0981635847684314,-0.032099798535205434,0.0971626549686682,0.10670425214005028,0.22083199306932816,0.18588411400482113,0.18493893816625784,0.19827452433626255,0.040018159858914576,0.004420318640779492,0.11987320768615237,0.10054442520149001,-0.042447337362361386,0.055598683270014,-0.004820169234772222,-0.11727964410723782,0.17723263149081453,0.0075810961900887874,0.2813707879882223,-0.22324605722466984,-0.07646832166626712,0.004482636883127815,0.15620858386260228,0.05486335681220242,0.04264050928892816,-0.1548190672779413,-0.15889500682751792,0.04429297829724628,-0.18734711344954613,-0.07304840069342357,0.06879627837306318,-0.13491298895867604,0.2204805249521916,0.16809613195607145,-0.2158197398440381,-0.12805241078412105,-0.3139299810171563,-0.10748155454807212,0.10525624073018555,-0.05684457297156801,0.06328616241565625,-0.2090782838926846,0.10959438725990495,-0.07623902539308884,0.0016713912684441778,-0.012755438234201614,-0.17463521609005575,-0.15836527520171048
K133,0.11956621487783187,0.049293505559648516,0.12972836005554186,0.04010991754057486,0.0176657849519657,-0.21324006607047427,-0.033402466738669895,-0.0033831971999685622,0.24129672407465685,0.08487009061938684,0.18977275361668514,0.07382282502005376,-0.08787799186775015,0.014470116997043071,0.029184261899676392,-0.11602802067524155,-0.047489157189916316,-0.02542149327026493,0.19836638052940736,-0.2570651896988985,0.14897289560193994,-0.11573641299585276,-0.1695135901152777,0.14577600800804555,0.09042238266236514,0.15498957427564833,0.09892276116427565,0.25448365120992467,0.06902756368742435,-0.01933200506542123,0.042366856012621974,0.15362445411251616,-0.09628796257379868,-0.0805376067251283,-0.03817048007322378,-0.2600107845258554,0.017058903702809845,-0.2330218627267817,0.006555215404262857,0.10690226512679911,-0.05891572559020167,0.20719936198465244,-0.1804376548555367,0.14717435901671794,0.0834098405640413,-0.21200741136317994,0.33490521389571454,-0.00787541440680519,-0.10840880631707044,-0.17383865611118288
K134,-0.02952316065771862,-0.01709611527053814,0.013773509662401106,-0.039959833550778014,0.08496945801177216,-0.05201418241573996,-0.2596435260685753,-0.020042100545335062,-0.3176804367240891,0.04747077902154684,-0.13140758663420296,0.021920540123835854,0.17632939995193933,-0.12730802312946973,0.1424048717840826,-0.05815446098101484,0.23525277613033646,-0.048998072470279354,-0.11278171023868172,0.09221722145680536,-0.05847652729876955,-0.11291006221279383,-0.06411903074965146,-0.00598553595826011,0.180100694783214,-0.2595259299553912,0.0030970825869473676,0.08385280704858636,0.02595793362589216,0.17576450552021705,-0.00997604213599754,-0.02476407017745466,0.07948185230456827,0.01332644304436256,-0.05238707039161467,0.0692588855800633,-0.08755963245039518,-0.08201092174730315,-0.0708489776801969,0.1815618411887023,-0.4322126889801903,0.053083504469817,0.004598769870938594,-0.2255479205079509,0.041560746442896604,0.0638388710119608,0.07912085178940481,-0.35583605023049775,0.18334922168097395,-0.09899333926034677
K135,0.10227901647894332,0.11039886127037284,-0.13060286634660856,0.0983896995885699,-0.05742750038325181,-0.3085761334719362,0.1739602482188058,-0.11545959873462887,-0.12729515968357058,-0.060045320733436845,0.04055550912143789,-0.008531658121038227,0.08164634340715796,-0.19954571947261412,-0.11059439971380622,-0.01728025606735717,0.2827310874986408,-0.01695482280806294,0.16166717168592468,0.005743620730930338,-0.07205134523519109,-0.036754903735422124,-0.025089734528664906,0.08992600187611957,0.20477788121198717,0.05358218984454406,0.17684072408001172,-0.1437261594946683,-0.06176812243833636,-0.10790042378527107,0.04684327751179036,-0.05347456353235735,0.1087153578154333,-0.1386927071017969,0.006410387977363801,0.10232224267938224,-0.30767122044596507,0.3160625655237483,-0.04218155664408758,-0.3016732022162169,0.023551482769505278,0.004982123072508131,-0.012199927301331683,0.14765921156685868,0.11134798701398146,0.04437505838934429,0.06706035306821724,-0.015546433138275948,0.2644975076187496,-0.22035802679730448
K136,0.018081474350526518,0.00841909850056448,0.105299910542489,-0.10925842691052985,-0.2257629320448199,0.02030474291892815,0.03641246666169795,0.1928666710636627,-0.16448079756636916,0.14950458591225832,0.30652222639341464,-0.04891130852973105,-0.1671454263676952,-0.052693221246496516,0.0018133005545933958,0.07299673318141271,-0.07657114530594,0.20136015241527738,-0.1443046607196153,-0.22518450656523806,0.1432919172832487,-0.29450776056819666,-0.026429809744670997,0.4036634124682695,-0.0015593453867051516,-0.14511198410435752,-0.007431566968840887,-0.006577458964011876,0.02080023596006297,0.08574684974209411,-0.1345394678845046,0.21849617662923548,0.031736301556824824,0.09410204340130778,-0.08132997562507853,0.16655500727547004,-0.033281996530231464,0.0359362584217855,-0.12081440266083537,-0.12907824938891307,0.08910574589522223,-0.05743622886835524,-0.11054919565611908,-0.08327650324885157,0.09049731848500585,-0.08144500964076844,-0.015233434471316361,0.0019457259133333874,-0.2482497606853573,-0.19047486909480704
K137,0.045088436452930654,-0.0988215478235411,0.14168660959870494,0.12963035060015782,0.0964267700872666,0.24399660880075189,-0.011140690463616008,0.08700266183731128,-0.07835699919266029,0.32881592430258777,0.26596735242950403,0.001592939155135215,0.051833823209905386,0.18225582290503053,-0.019728594786208153,-0.08804073546423845,0.11718531788385234,0.010517203406899236,0.02453605746286558,-0.1118598386607832,-0.23030699901722199,0.031662182921094115,0.12133810995282789,-0.03027636839025915,0.1925977389017798,-0.09438172274036682,-0.14141570503121753,-0.009014298979057072,-0.01107408546408776,0.10323808767573754,-0.10390770004051322,0.1834352838251506,0.2637259638767273,-0.005248465715135267,0.1675622771129141,-0.14165606052239044,0.14416665407553073,0.14041974600721993,0.11577043327482112,-0.0020867127039178317,-0.39610830777894945,-0.08604334231257954,-0.08392337257555259,-0.1311652862702306,0.016390450037225154,-0.05617498888122924,-0.11056470671862087,-0.14196485920452592,-0.09593661316681786,0.15037160503966684
K138,-0.082214106651334,-0.06404481257289422,-0.05680115476120616,0.04216186467265395,0.05674541962806446,-0.3786750830119102,0.1270645126692114,0.17864635225427236,-0.1306155453292198,-0.12092829315612105,-0.05599966262063615,-0.09402698831055366,0.02785060531044566,-0.24209647784441163,-0.13904075035007066,0.19143559217120057,-0.11544611638730101,0.1546497282570422,0.044194712598303675,-0.22502525101986884,0.07901821852069757,-0.01463471325955944,-0.056648105660362685,0.03046621068605748,0.05903190466006221,0.08800578602911772,0.14654362129305037,0.05076135802493635,-0.17109264905613242,-0.05890902001013997,0.3660376986045659,0.09010760619312233,0.294676937693892,0.1735552467424711,0.03007380909427174,0.03748710099107366,-0.004549593511912799,-0.21613712373867125,0.002244602876697721,0.15057602746820348,-0.07457942197730626,0.05123610302379575,0.10591549681855636,-0.11314028739563228,-0.0561301898641518,-0.1266013795602154,-0.10225574719178002,-0.16014418420906693,-0.1119920724933496,0.17654290092486544
K139,-0.1406319034094724,0.01942615720009097,-0.07724867773489559,0.18109264932058136,0.20141548459531639,0.13273495937734114,0.04702716019541162,-0.03549443780051613,-0.18309100386994592,0.29855709886581916,-0.11669791710833038,0.10194668572592523,0.1627662066117001,-0.08529995917380051,0.1594553143778806,0.11739536217854517,0.26544286254123195,-0.07209911863947864,-0.19752926455783484,-0.07765130549784553,0.03208324216458019,0.00894240527341534,-0.06043834904463941,-0.2932832437175401,0.0722737077665134,0.3029836352618488,0.07131641013682155,0.09357295132127627,0.08793674821355907,0.060992714348540096,0.14311878299413244,0.06073571654594309,-0.048032210665866715,-0.12227661858277132,-0.038246332707799535,0.048255311273964444,-0.048555394669156496,0.0482874456914856,0.06746047931555783,0.127989677051297,0.19705780966583686,0.011983186242960325,-0.20089538213074934,-0.05301350494650459,0.006768714589874307,-0.28200342138280027,0.21332106481499968,0.021871522936747954,0.05858189041719106,0.20976668936401244
K14,0.13418837473591605,-0.38941870245645216,0.2807943573973747,-0.01876865288946599,0.14900174819791046,-0.13982151569471032,0.08239108360584659,-0.14163796633650455,-0.08386943400628726,0.2573528604886457,-0.025638379006776162,0.029235138580159924,0.11698576350865758,0.06664736787328542,0.02022471336849577,0.049071170000292354,0.3231534711040638,-0.007747188782749651,0.027038958797139245,0.14126671104487454,0.14864451442571164,0.15960326041970174,0.08588106427184419,-0.15368378540377745,0.21962455129107347,-0.15413293277842133,0.040691132100439946,-0.10141685882408832,-0.008623780864076494,0.044204054725548184,0.04320838238502008,0.05672974624089392,0.216973045011001,0.060980375054224975,-0.03282830679465695,0.1296272341715648,0.15993135753662752,-0.1650591470957219,0.08032398033678083,0.094276831236766,-0.04000917676296667,0.18497193522155092,-0.020175863094984276,0.01688449849352362,-0.023270532616647018,0.002094695288392036,-0.14740068334040188,-0.19362337672062704,0.21439065679649014,-0.1138789734414205
K140,-0.08352413048149868,0.0760880721695719,-0.014562262576452099,-0.024400333964118323,-0.10235250592508281,0.22077226542263567,-0.04977175466075701,0.09271254107844486,-0.24852835610238197,0.15640504216832515,0.1394684152232487,0.012914690055240822,-0.030080755103117158,0.053019174484490464,0.30337447426167885,-0.23371338221163818,0.1036561148289061,-0.12083299031918553,-0.00264014228511516,-0.032855997750571464,-0.05677270031593713,-0.0013871312386565349,-0.15033204250714663,0.13641574088328465,-0.2378100163387316,0.07154467121140275,-0.04328165274501961,-0.15520367595441178,0.026825497719862014,-0.20637065042858113,0.005263985034123822,-0.18859939496624456,0.06114066195013631,-0.12252165517495951,-0.059778325361921555,0.038962384175624414,-0.10239886112389363,-0.007683008422759003,-0.2006551058976345,0.08362125808914832,0.2339356792334224,0.37010151771817595,0.012084149519250952,0.10447483070961884,-0.2360182547963532,0.19918433083023684,0.10288748488559196,-0.06414437849167814,0.16398575949709895,-0.03373027830110193
K141,-0.0635404516607797,0.06594177999781718,-0.14751596134964837,0.14172692106265106,-0.14649428041794157,-0.14567093270897705,-0.12619851957971417,0.10536314859923283,-0.08556338493501002,-0.18700338791807172,-0.08402415890001082,-0.004445141404496868,-0.16383274936348424,-0.15976924534060866,0.292893770109956,-0.11938364192572756,-0.04481469311863725,-0.05094568107316306,-0.05845355860100672,0.08619755847427948,0.1315330107298132,-0.04244413514380195,-0.1715329019285124,0.17679924749817247,-0.013226381913319974,0.2400423245527754,-0.31152335606366244,0.027107699307264636,0.2661624677738572,-0.04900726762131341,-0.0312820222480274,0.04099544534016246,-0.07752005792436312,-0.04329279753304003,-0.046864068742849915,-0.0870401853985458,0.1704755614356026,0.06396396423042959,0.034768898430373917,0.1121706161208534,-0.036673287111325045,-0.10740295974966105,-0.08360025150790745,0.00024735591255248637,-0.1469412443906197,-0.06939970141595457,-0.0715993044712426,0.2947332754360114,-0.38480297730969565,-0.024918101992078976
K142,0.22278909726018967,0.01573026355153303,0.09726708148480599,0.012887694628380525,-0.08615352398660904,-0.28943398258840863,0.02652457071606509,-0.10013172440433929,-0.10332424175560208,-0.0644198413222536,0.2252636587350339,0.31046735366781464,0.028041800069738252,-0.060001994955620946,-0.1519813143599536,0.060489085639422305,0.23017520883050738,-0.0319319347214198,-0.3071311854465631,0.08650420029603131,0.12721626111682496,-0.20473453638567568,0.022784315573644236,0.058253809113667905,-0.009438238629306874,-0.10208945523022252,0.131158689828493,-0.05207679939024592,-0.19173927948801445,-0.26458956532223527,0.1627771552005233,0.07961204427048997,0.011357488350071408,-0.05683997317424249,-0.06829431712804258,-0.13887886587637105,-0.055701430902479664,-0.2737057517017977,-0.09502668292896217,-0.040142398877841476,0.07873623102562759,-0.005154553356325664,0.10262550845867474,0.17417492802126242,0.1366110030252083,0.06074337439582466,0.0015314858271949729,-0.12662088483361084,0.09552764686077758,0.2168573616411388
K143,0.047696596903809306,0.2673052392061436,-0.21269597836273224,-0.16091404226952136,0.11923262631750198,0.03684747463734891,0.18316817487170642,-0.002157063967470224,-0.12101357197040881,-0.029779277750377964,-0.21368757364465243,-0.15734868188563497,0.1355786335360227,0.12168446231821456,0.05061024080265714,-0.2399534975802891,-0.04996880758840274,-0.1707901034320669,0.1640328607094605,-0.08138283479828912,-0.15137549443236784,0.004154196396322482,-0.08925065782240464,0.20686432565114618,-0.10244770661175254,-0.19508111088846264,-0.30016029016845097,-0.004292269721959063,-0.07834458040022041,-0.1992186022217827,0.16580255410814243,0.0930276555932077,-0.00393415093906219,0.19021505431474303,0.09237110853568571,-0.11472298555369073,-0.14488860034984646,0.11404340022888428,0.055261681342812445,0.0236663195788397,-0.11801915138550566,0.08476035696930613,-0.10533203601707902,-0.014219030914196676,0.2017336839860198,-0.09213384305603521,-0.21930695700459552,-0.14674666131052538,0.1386256448056606,0.03551474388142352
K144,-0.015539490598309044,-0.06138438321594187,0.0585226499557685,-0.10238148062281008,0.03685586468684829,-0.08817159079936418,-0.10823598151894166,-0.07686554537959331,-0.045265046081215815,-0.005887695607475675,0.0283902664041834,-0.444727525904306,-0.09738309683606344,-0.04721385586526711,0.18147403087169497,-0.13022215806883045,0.01962932938378315,0.18026444732736047,-0.1583122060254298,0.04750387058284273,-0.09673455301121478,-0.060846607633379624,-0.09683571609380291,-0.08824426659777225,0.32819668325165247,0.10182092635850326,0.13284290322489242,0.05932249895917678,-0.1936756668687619,0.04762236576357241,0.1293693263078387,-0.10289930815135291,0.11639501688558443,0.08492588864263731,0.22331117498578779,-0.05037451305374155,-0.13234530150451318,-0.04360359174630957,0.17309509378947358,-0.22046146720484203,-0.2493960174448837,0.010778905581606489,-0.0533655496717239,0.0009317967557231791,0.11398170517625902,-0.06662648050644278,-0.22583914102269279,0.24651496065303802,-0.12024157966812354,-0.12769422817414397
K145,0.1534449521137986,-0.053453696619585336,-0.008812790099887611,0.0671200182531706,0.1506454130583738,-0.0463594566202832,0.2113117093674541,-0.29693011038951767,0.10562961144260115,-0.11671552960587249,0.19078036444573862,0.019747769344753946,-0.09355083278688621,0.0921516494339166,0.12417573430019038,0.08923949164604696,-0.14315377832947843,-0.06729060217541365,-0.0005662272037253935,-0.005736133572288112,0.10423355302596622,-0.28012214990396755,0.046479902727580104,-0.04031473063114004,-0.11657275878732398,-0.10322441075950232,-0.02982615269205311,-0.5006417610819767,-0.09749695871244911,-0.12176037596268699,0.07407031948783106,-0.1119885493489655,-0.02990625009584556,0.2144153955127961,0.13823996977978942,0.12543850798810485,-0.069494890183879,0.0754951990141136,-0.03251770045292036,-0.027261907864367406,0.056956607809337416,-0.08299718356880179,0.207565131572054,-0.022262132875264636,0.0859677330292784,0.20236522221168604,0.14342592511645275,-0.19587533211017782,0.06185176354206725,0.11827147747825711
K146,0.13007918507068625,-0.16237525400950464,-0.09582929897337333,0.14505739289109332,-0.11110357283058504,-0.04371099356193032,0.2298431888968676,-0.006971572295910788,-0.10600079298145564,-0.12800143940045566,0.04852747358540624,-0.1944410769505673,-0.036074217478342614,0.048602033445846925,0.18948240452008538,0.09736260853113281,-0.10414716870925915,0.1718737302605808,-0.04368459172822352,-0.18022862043113144,-0.025092418068289688,0.20975853133316064,0.024100439775392717,0.0018263274371865612,0.23878908670887808,-0.20876465042886144,-0.1875060193418799,-0.23567295304325966,0.05435114049011195,0.024283202416594953,0.2250097654553214,0.03551110297435919,-0.05894675823444496,0.0002617841478885368,0.01716775411663607,-0.24382818736044162,0.39530479771683047,0.0758237494954422,0.030629938552075457,0.08972233153688416,0.10346835774324724,-0.02049987767034644,-0.09206720151526214,0.08743053005816455,0.05625634269229475,-0.11812334570294512,0.2069678765980578,0.042785711343061236,0.10644494225422706,0.2030131648620319
K147,0.0030363030537689946,0.043965928519264105,0.11236275171654508,-0.10054894714185102,0.0074977646226223145,0.017415444814254354,-0.13261945347343992,0.32149048164746064,-0.19521240307311538,-0.18006619987406347,0.18230265280634939,0.09894057241068654,-0.14231648588645907,0.0842399632756812,0.20361255432894623,-0.004197933433972958,0.3604951517616737,-0.239152858064142,0.0962435690741249,0.16181472373058386,0.1236425749025854,-0.028347160050181144,-0.040288526829777405,0.06160950053607747,0.11315720569395647,0.08357197131007066,0.1442714034772162,-0.1413323238715658,-0.03159520169062819,-0.1303941050002364,-0.05355954952078504,0.14082614458096263,0.014978966011321797,0.36160990024138095,0.02682832204138654,0.00828014619538491,0.014729140510882758,-0.08847349371935224,-0.008022793071372195,0.15644087020202246,0.01580941637151248,-0.11006459337144897,-0.12832291136201135,-0.06244965721012124,0.010245950194153124,0.16556809593868707,-0.1859455895168252,-0.044364632380901985,0.020017932870872366,-0.2543620956121552
K148,-0.1572407488098468,-0.12824664503256836,-0.1501430367266602,0.03619591878310119,-0.030286186695152584,-0.10474302114200379,0.08072613060369875,0.3250217333628197,0.30921119614911896,-0.362690374257527,0.10885250624637823,-0.03358034200312598,0.029266785683842778,-0.07512770085085632,0.022180616962394508,0.02855981450560726,-0.10920704817957266,-0.1690808478243442,-0.08463698470175031,0.04418807345397349,0.11298803659434625,0.16096630107680904,-0.09321853327825096,0.053541295873911876,0.18155583016748392,0.21986491319198603,-0.011097578086822725,-0.04167411398897492,0.03605155895619049,-0.21686808579708902,-0.03652035412500776,0.14045053263894516,0.12108979755915242,-0.050980287936766226,0.04106795043609572,-0.1555529079932477,0.13269896835093226,-0.014679373916188634,-0.0520524259544494,-0.0682315787015441,-0.011863602563681241,-0.08448267913134593,0.12414481401852825,-0.07456191111754255,0.3004791065490238,0.2763810835977329,-0.16817089095049856,0.013148241478257735,-0.12273265966061409,-0.06161517901634028
K149,0.2363074971435508,-0.03629666140018324,0.042510460230466104,0.063881604804422,-0.11808478778906785,-0.10091025749565875,-0.14232332141437445,-0.10455386277539633,-0.33633352158749474,0.06426644969634222,0.24241647356438747,0.01744440157361443,-0.16713461777807434,-0.07585437211602165,-0.05415229290303617,-0.12008570383700176,0.10151059633863967,0.0956192052973385,-0.13635546149804967,0.08556718763009698,0.18017994907020632,0.2245218740314813,0.3381251470533446,-0.1064446172836916,0.33328770760825727,-0.04180007840144921,-0.06991715363835499,0.038597979472927854,-0.06868935792482574,0.04709140463244317,-0.1557829890524821,-0.028175317579157515,0.1517122218322021,-0.006733832400798388,0.01670979174587963,0.05608551280450462,0.13815038202178662,-0.19533392108713435,0.06897998451468167,-0.03164323797204669,0.019665023880602636,0.12508526563912453,-0.14092658199963745,-0.1195026922674001,-0.22840108671428871,-0.06480652965414598,0.157005006422911,-0.014230556240451029,-0.15814882939276556,-0.05731519887776019
K15,-0.12062348642332517,-0.26200466775323655,-0.07774297808503071,-0.16098137515329214,0.1997852752083726,0.12286523900770863,-0.08372779340517797,0.2740556349202844,0.11945217850023261,-0.039522489758984265,-0.3041046579386792,0.2787407835586651,-0.16907037427796115,-0.20019695887642927,0.12441694823452411,0.29684659299996974,0.16842556190932212,0.06861126588673849,0.07236422824567916,0.10383574184776155,0.09233943806064418,0.03421278157948941,0.012678230223107614,-0.007615755071664745,-0.09173546416683907,-0.0341499572216511,-0.20598338629944501,-0.01196505969009817,-0.12028265707016553,-0.13427457968089765,0.0218878627731972,0.16936601233629497,0.11173230327748858,-0.19108404290476452,-0.12040883325476348,0.11446436991770767,-0.1195400134372123,-0.027331291928724983,0.06692527124623904,-0.11781923097187849,0.012821120661178156,-0.16231193055189858,-0.07316887393306763,0.03890811928558964,-0.1938207997010249,0.053592907594376724,-0.0023893464313251883,0.06722188702808572,0.027243808695065645,0.16597603837138641
K150,-0.21605417798069326,-0.16338961995896212,0.05646085912641743,-0.1704595500868805,0.16156695856869618,-0.01032746251687694,0.01242930936178357,-0.04042287166036245,0.11222615923844297,0.11372358424452211,0.048653643286473876,0.08201370175940997,-0.030797794704541855,0.0787339473027393,-0.049063635999687286,0.00032405652402377335,-0.0398813474180162,-0.06639325109207957,-0.1000667485723195,0.06791383950663893,0.19031465255489288,0.17005711836458356,-0.18246735573595313,0.18720671744453493,-0.04620017665174343,0.08723315982167301,-0.13159261252549279,0.02061707315259975,0.045556118714030154,-0.21558123795503706,0.08832720293077138,0.19544483270973434,-0.02536083713408025,0.1975116415269939,-0.027545619125752454,0.12336918616142506,-0.3221611989620246,0.35123361506080364,0.21715728089674122,-0.04133080998697569,-0.28636940688551094,0.041824943946986284,-0.20967415614398163,0.06459771439328015,0.059763950460219775,-0.13670228042698862,0.1627769625780916,0.11697846635107374,0.14170047424275686,0.0012862377467542788
K151,-0.1892955176711866,0.1307691209998984,-0.03615628667796621,-0.18585282850639795,0.18080582144530594,0.2807500364601937,-0.005516038978489589,0.2887354346200291,0.01221135636441503,-0.05087769188358082,-0.08431008857053325,0.2189241208501972,-0.10432725471583933,0.09832625803594783,-0.07477598586601178,-0.061556005260328735,0.13777346052176992,-0.05082165201847744,-0.05413256665097739,0.151487958830395,0.21361710098382464,0.08621322159227127,-0.08756119837822449,-0.06828276711153607,0.010686926187332718,0.042917406795434446,-0.13210555243849897,0.09669057861170384,0.011435545590692903,-0.229438624139737,-0.12422368752745346,-0.06741623154443897,-0.00974312923945116,0.2526498955258857,0.031850225470502064,-0.11243493054042474,0.029504565335010145,-0.04708406870487173,0.043429342183153904,0.07763828494995827,0.16170826529936613,-0.0032477899017995557,0.21917527844728965,0.12142825684110108,-0.09460463300229813,0.2955200706255188,0.04372839509543591,-0.1116797156575328,0.22104112463472347,0.27785750365465517
K152,-0.0041066125691287874,-0.06262770548228438,-0.021434413753461688,0.08887518115535499,0.15889841927242615,0.07093873536778098,0.012649037719412837,0.18627418139257435,-0.03890046732781684,0.128192354454628,-0.03581992012094409,0.05359667410928872,-0.014121233365799018,-0.006945085351716969,-0.0469271109896431,0.1672293827836735,-0.09113760016867245,-0.0920461104627173,0.263740477911215,0.12159300630574602,-0.2965831848317003,-0.07028857249901235,-0.2253165410561842,-0.11821611430828563,-0.39026679351292853,-0.017034326398562182,-0.14199773444970493,0.00744907542922764,-0.202079942336163,0.010309890672103627,-0.05159384698132985,0.1867642595517118,0.17549885073401814,0.0976558477115764,-0.04061364258295333,0.24687730444522513,-0.19311622297507847,-0.17452915921036005,-0.010418228117924741,0.2802842486889282,-0.025160359209617154,-0.022786107792701432,-0.1792981046948779,0.1176240818958646,0.1185251878641503,0.0981196143526153,-0.07824208599249406,-0.08787729667606085,-0.16079665955211986,0.010429345026902015
K153,-0.1664322066227524,-0.18137606231674785,-0.06526777357953532,-0.075352452184327,-0.08287333049405815,0.07185382902874902,0.01217698157354726,-0.0443892249802167,0.028192372148856396,-0.15274057191686632,0.01621772938100635,0.023199680831264086,-0.2315380492904631,0.1533824365769689,-0.13578115640011754,0.01391184487023245,0.17937273298964196,0.14259661262072096,0.0052889141581107324,-0.05584144730719261,0.14596022580749923,0.10393392465133101,-0.09525653149076145,-0.12245002427857096,-0.3192376027531111,0.02372795760158864,-0.012739239926601722,0.17502550427326077,0.05531092754339496,0.20553239774386659,-0.10742602732005532,0.1753272732589245,-0.08147734443090994,0.11978540400283563,-0.22471559718173556,0.03622160426711475,-0.30573283297975823,-0.04115140655944217,0.06783468133744128,-0.08025301496274753,-0.1618155002615327,0.13034099278392403,-0.015938007778111628,-0.07541629982967261,0.006453890507069734,0.40616779573420037,0.17769226423424977,0.17908958567249136,0.06709407923465738,0.02564635627167468
K154,-0.3313210248896154,-0.09388678567747476,-0.06645197783625224,-0.2592528492210004,-0.16004299506124503,-0.27390243351872484,-0.005299272309133532,0.11321580311642551,0.1530405151852432,0.05735479693401541,-0.13321473335676992,-0.2671585243929138,-0.24293303319218987,-0.17547002042070428,-0.1229080935869941,-0.02208940666892925,-0.14023471973090548,0.046872280242636774,-0.03211788483935824,0.0014582203788425284,0.15766945216443976,-0.1631978958681704,0.05789685549675564,-0.0019321641841170978,-0.0461131977543624,0.1224098324785388,0.12154668977718576,-0.1308770997151288,-0.025188463531589475,0.038884867743673064,-0.03775032101241022,0.08089449529337396,0.038882148588364446,0.2533995060540306,-0.21160110157850132,-0.016929976822602444,-0.12562422613571794,0.0835336508492737,-0.22361629675327732,0.04788678696171191,-0.08712066902755751,-0.10151707355909644,-0.20001619711985424,-0.06430890954675604,0.14996055391724153,-0.0034829940871615324,0.08679322925016132,0.23018025600126119,0.03647110581693221,-0.07726865134192852
K155,0.06092955167877364,-0.0709760576789139,-0.06577656980797247,-0.1981935748434132,0.1207837048965079,-0.05033462253779061,0.02374555779197568,-0.13508913134116943,0.05684744292458114,-0.09935691375369707,-0.0184787757055074,0.11446825675172764,0.10311478215527572,-0.0028727149883772123,-0.23056376755753352,0.3902616196735504,0.2276594971550723,0.09423658499458323,-0.09821755198558367,-0.014812384536295702,-0.07086186449949058,0.16480644340139392,0.034230299898583325,-0.10225473690664225,-0.06138632671639408,0.1462026046203267,0.20865228945100506,0.1992939871741586,0.09871675902521002,-0.032942208723466766,-0.42269245114351356,0.038749579861072705,-0.00023846961636348678,0.018253624262815776,0.007028198229352132,-0.1729441965394873,0.07268591216323865,0.08244082173671034,0.0889767768520293,0.12343336335944602,0.07876815715363114,-0.053467714883714046,-0.009237104171194565,0.011882655936396116,0.014043976543910156,0.1301672892709573,0.08393421641875645,0.2708849746305083,0.2877229071774465,0.010386282188452303
K156,-0.44426197452093996,0.1432178694733096,-0.06257237750706772,-0.09280708814279959,-0.04613760145249318,-0.05171861778511365,0.07089721538494878,-0.18057342120572026,-0.12479367523618791,0.03973572684227891,0.07213322683569533,0.0742867203784121,-0.09113413671939477,-0.11327736448051681,-0.05866531117449176,0.027775843105481958,0.17200947566017424,-0.23708109194826327,-0.025559081903835153,-0.15431626533403278,-0.19131990999910822,0.11196784884937967,0.06306429800216538,0.05204173757292238,0.10664933376883551,-0.05554860518503165,-0.05009686035936936,0.25309465165460787,-0.028551466776592854,0.08512394192131895,0.0007389446232636167,-0.21401738405406984,-0.23675592111892538,-0.0670429413112826,0.12229026594512755,0.09127950201735516,0.1058447183265483,-0.11429409777838448,0.1871084578661413,-0.111728925708476,0.024643804059324276,-0.001198733818330683,-0.020133557926896938,0.1550010364303391,-0.08164761938824702,-0.1562762901577608,0.0023153587991857016,-0.046297566251867185,0.3910809259245239,0.07833555644110084
K157,-0.04888556475060788,-0.12612629586448187,-0.2245537491502888,-0.12243695600566495,0.0137269397808404,0.17045895628760344,0.1339579082063193,0.027359687518143532,-0.03859435102069701,0.032102959371011194,-0.06193842717550439,0.20521589958474806,-0.02259406815941115,-0.010310912758880436,-0.26462495338104064,-0.023339838321942624,0.09989725418131727,-0.12751294236498856,-0.08965489800722946,0.09466964218057848,-0.17635002900992708,0.12632805731469526,-0.06355137060576922,-0.046404822909886116,-0.13421936126472075,0.045148236118547375,0.2937706117653611,0.09333043488706129,-0.10321740793231728,0.13562167306408993,-0.037819506262465157,0.16414809238597527,0.09633746048686147,-0.3514851599850092,-0.11991237342003984,0.11278335878572386,0.018111694384037445,-0.12226222050858887,-0.07566653090384824,-0.2276526182912332,-0.010553994231547556,0.264011979967849,0.09612930106319231,0.2615909065091797,0.1053804159180587,0.12270688763886492,0.23575466825152303,0.04505472608658382,-0.022359653312450416,0.12332529182347828
K158,0.19162188206090058,-0.0632612344952526,-0.09510565333415066,0.01830177318698327,0.10959483287405636,0.10519155055389005,-0.1877109113848421,0.25195722540660437,-0.08450806859335032,-0.034936612892767324,-0.11897340773410074,0.35565039180994645,0.03190586988027846,-0.11216187472561841,0.11386853408890726,0.10137513175693592,-0.02474316273105915,0.11079528290911826,-0.1087767381491747,-0.06496857435654363,-0.264954490089424,-0.17450197899114372,0.23825287552888072,0.21634677241803554,0.008671203582392413,0.21918092890289084,-0.021098449204115823,-0.03208243870276471,0.007448326534756664,-0.016465159372215776,-0.028363724899251905,0.1507043839085188,0.019788471828572605,0.09390790896333605,0.13594002444577644,0.05116442017035193,-0.12788559074986922,-0.17831306439316055,0.0196098749560205,-0.02257225698355604,0.01151853529574667,-0.0021159857437868844,0.3405252066651821,-0.17532907135479694,-0.2622827733658498,0.04380857866374394,-0.049613978564217495,0.04165899285916875,0.07695808712445688,0.16925006762816017
K159,-0.2334211798244724,-0.08621783596708606,0.06640143604060597,0.11932022334337805,0.3396953362856744,0.14800804596321632,-0.008794741221307733,-0.13790008185822042,-0.0873904901331233,-0.09179075248638005,0.10147477873580485,0.039800702820523066,-0.20499107719733334,-0.06750722673818782,0.13590411105519085,0.054461276265150176,0.08806490399476004,0.05930235279488673,0.2518822168787396,0.03655553779806706,-0.05978261233288143,-0.14182123159033552,0.03865653934711425,-0.3779871622594701,-0.028540485211106716,-0.03187802538142894,-0.21131299117893265,-0.14375875487233986,0.1253901130043199,0.035729887280412514,0.015763764543443918,0.04744345660726205,0.014345057370252056,0.19247974779794771,0.019115241278639856,-0.22583067570882334,0.25245510959418377,0.057353888824960106,-0.09125659818056982,-0.19411192664143534,0.0613144781063881,-0.018146204287125767,0.24378510176994428,-0.05356999891533062,-0.1296835611801285,0.13873024686484414,0.14329663687234778,0.026118714710284537,0.10474612225702051,-0.005836532302505041
K16,0.017694443334524048,-0.060675761167404425,0.017280853120598856,0.07676897081055106,0.006904014209821927,0.005735677640334379,-0.09919266500206071,-0.09366907014188308,-0.19819060150189496,0.24721828306051405,-0.17576007146470915,-0.09790872791940576,-0.10151221512507216,0.1264543946407304,-0.04167691033877388,0.1763081580216277,-0.0951654143959622,0.039422367745491495,-0.11803601360770456,0.30311335946938367,-0.1678097535653438,0.04377821340914505,0.0895537923429862,0.05847054311982203,-0.026181473364015165,-0.018343894098267033,0.006190638349078707,-0.02077164239326586,0.13619782113579543,0.3123508032712785,-0.07877457359139792,-0.1935555796917294,-0.012474409312681714,0.3645174844336244,-0.11356063551174464,0.23161009881703712,0.23706208736502857,-0.07822299603059843,0.08039831374898351,0.23009531812710105,-0.05357141923183603,-0.028766264346696057,-0.0821925402217634,-0.14338691781477705,-0.09174406355481214,-0.17294492081920776,0.004816054246608768,-0.10879857709936144,0.03303436213456229,-0.21985080207178487
K160,0.036716213176733625,0.1829005414171513,0.0981733535964634,-0.026575646970715627,0.21231740569317128,-0.37127614862092595,0.3221701777276908,-0.26783114508529926,-0.09845194403345074,-0.006423946704340696,-0.02299708468478777,0.15800391819714957,-0.16607760040910388,0.04093971276093892,-0.09077779697776929,0.04633636685327432,-0.0101690764821878,0.014590655984589048,-0.08633676975660463,-0.08007871480043574,0.0451010382452496,0.1481608822265357,-0.09392830088305432,-0.13639424706769376,0.09631165197816713,-0.005103026751018694,0.13038604904586437,-0.1422078088500744,-0.27936728754685464,-0.0836802558737957,-0.12031536834223003,-0.01236957408659143,-0.09998304384376566,0.1163377358803379,-0.04523884246251227,0.023624105310292704,0.024748216073116135,0.0306074429318663,-0.0037882076436651663,0.08016298163508875,-0.12491578855776254,0.21970497819738802,-0.03713575456340753,-0.2059098066835768,0.02952702835255796,-0.13363312401272362,0.10445579309374933,0.3469023339367914,-0.12348977452332813,0.05218159267045855
K161,-0.23104336903850922,0.05973879781932815,-0.11656943824406783,-0.08223493919009343,-0.1449411169786936,0.09635895607611364,0.1325720600921149,0.003077745132316649,-0.11376782823858454,0.2091982844080525,-0.09876202342653177,-0.28454664557001264,0.0603289114384741,-0.14540019938922719,0.13011152330177886,-0.05016180983620925,0.07945513926356167,0.18445248130197264,-0.15909879556699724,-0.0744833979605003,-0.00995912498253368,0.20235824887429027,-0.08665022899866434,-0.07824306439221196,0.06292842937170118,-0.07596949297802273,0.02007404253052924,-0.20419896993566933,0.29142957640404576,-0.177372993317979,-0.042346107699948655,-0.004274852782642314,0.2517302783455445,-0.17436391809439994,0.26107674597312197,0.09965259286606264,0.05489421941177938,-0.12958835664277357,0.07516831481845987,-0.09521860128141543,0.16670621002434285,-0.12780218086116887,-0.014892871867044823,-0.07307989551069756,-0.12996861628357434,0.09756564099565136,0.07047211571337092,0.1591187127818388,-0.2342506592483354,0.14005628115509242
K162,0.372049077917648,-0.06706688387008618,0.2814219408523978,-0.03907838966668009,-0.20379732202607082,-0.04538518751511689,0.1556540701386423,-0.12446583393377282,-0.08914787447635637,0.08813821667657992,0.00045441501859093517,0.08681415531449499,0.0353167295295979,0.07122242944311855,-0.06419498606387855,0.03441111216559189,-0.13771115863396208,0.19132720694705094,-0.09418724246733104,0.16762930824669048,-0.03468969342898594,0.029996040043703476,-0.0735002435559851,-0.1508712321079098,-0.2590898948319694,-0.15671138983080277,-0.048099160957018286,0.03146320523427547,0.15003726120711178,-0.06619318858897533,-0.13096762356780317,-0.21423733873910555,0.07128751498430173,0.2053988181154804,0.18804494776365566,0.10542215559334944,0.09482111245291801,0.2520902982860723,0.04931276037978907,0.09594765619288435,-0.047635112317685746,-0.20225795829517143,-0.10154880920615805,-0.0013600803569152392,0.009026383152989911,0.2860456960716464,0.012069332243559674,0.1750535065477736,-0.0646072191715138,-0.04628261452875391
K163,-0.18082397545605813,-0.10100070053861489,0.07170076943789394,0.0010286335727070614,0.12829565841855226,0.024661302605703893,-0.0479546415942407,0.29229597218968184,-0.01277646277464502,0.15823720865947583,-0.05458828202714211,0.09654767606283685,0.12626524940358075,0.02836729143927815,-0.320349522682101,0.0024834187866322353,0.16741565002639724,0.0717687231686772,0.06066056776034566,-0.23432923696780827,-0.09802468124946977,0.0559690705422815,0.05583650047664332,0.1652668275834088,-0.0197104831027633,0.05521617982684703,0.0022278694554995976,-0.13428283191399534,-0.3069216044085714,0.05864291807523188,0.02366715198898413,-0.08410852241135372,-0.22030370693897594,0.0856819775205025,-0.036180924490447526,0.0757680379775474,0.2536213158385378,-0.29136179063105794,-0.09518726297625124,-0.028487519335635723,0.1979427695060679,-0.22264800524352635,0.2633920805190638,0.018484471813650864,-0.013061791982922885,-0.026947891614791948,-0.0593576843456797,0.142606132459195,-0.14538228765498526,0.04699684467896044
K164,-0.049378599604335854,-0.09795647673606839,0.3323735726739254,0.053860296553235924,0.07882258963407825,0.1462376503271224,-0.18268510996841897,0.22522084808817838,-0.3224745036006624,-0.09880900662112345,-0.058999018482306834,0.07476849543693359,0.02811170509680831,-0.021440581434017947,-0.0015420102768242286,-0.12570461214871553,-0.19243822785198741,0.09337802844186435,0.08916155931327331,0.20365394892602268,-0.10154034246384834,0.08904705227483697,-0.03646462649173683,0.15301091353402207,0.13135215775396905,0.02714659570696793,-0.04363957251514089,0.12350793785825878,0.08314618392144615,-0.0879706440583289,-0.17066103071903735,-0.03708493102924597,0.19477507310312936,0.1473571891006652,-0.14296666826277019,-0.1500910403118936,0.16383421972938245,-0.14596248505027593,0.06545937016593746,-0.07918320051496554,0.2078376481689815,-0.09902215820703976,0.14695545426182802,0.02375975294251905,0.03241442744695398,-0.25324237781233433,-0.2831389057330932,-0.02834918535420313,0.03173466287855251,-0.14462088634366785
K165,-0.14981902684290535,0.07726627367265215,0.07745643512195102,-0.018955044115312503,0.10736637283228748,-0.16158621294908673,-0.04898148770281268,0.2267703807876512,0.009402054720749523,0.017382320707925104,0.3173296266303745,-0.1925685224970525,0.10959965526589562,0.22898715351985058,-0.04470487094150909,0.11829689303845813,-0.13513924489404636,-0.09450372181492457,0.05297661698367642,0.10989364010411172,0.154256116391763,0.2160022510811272,-0.00928156418455699,0.1642572186690895,-0.04710580410946557,0.12414003899083148,0.028553281829286587,0.06133134423508812,0.05828044602431089,-0.22082924414197824,-0.15469446340606705,0.014111097372959982,-0.23219255971580624,0.11438595786844924,0.11993795999122098,0.045023119798584456,-0.15428329512748837,0.1899258971713728,0.2803479038079926,0.020239772691796373,0.07025661479384947,0.027761983904096486,0.0729860169985733,-0.01645291171595978,-0.004756509708915814,0.12463906568667094,0.3227898009603749,-0.19266885225018257,-0.014286010402682386,-0.16244742497944745
K166,0.22191115495380906,-0.08192435413456065,-0.20116667475848157,0.08895640647182004,0.24313821625379006,0.09249840851667263,0.0285466223049443,0.057029845948573896,0.19721357740324744,-0.12185397969725642,-0.015590283838042904,-0.06310013981679008,-0.16278786808132517,-0.04577198079038511,0.15440441163704371,0.07897824792916096,0.08980995671346532,0.020417125500754255,0.0729457090425947,-0.11159368655241107,-0.04314235054813794,0.026763326390091415,0.03868272714676732,0.0446307446268246,-0.0192824510662942,-0.052608764427200055,0.4401593675620789,0.12639639694945815,0.057588316386821874,-0.032506757418373985,-0.06289505340876005,-0.01823219652440977,0.04081719258425512,-0.2621124982231491,-0.2187560370403613,-0.08877455787632006,0.02887301052460072,-0.03335210428014704,0.20603420759238908,-0.206630174814647,-0.10472948072490701,0.21188444614200913,0.018276624191901583,0.12333754307318867,0.2859217708740145,-0.09670887674329341,-0.013843350956768542,-0.03797338111993573,-0.2724492509366307,-0.043265977358183945
K167,0.13377699506618504,0.08208097623942404,0.09399913795301239,-0.05701579726132834,-0.09961920731725007,0.192718757187962,-0.0755106669966247,0.04465225271970033,0.024800091394338128,0.22194132590495774,0.14749540729458185,-0.196666942002761,-0.18031337220905824,0.08789937530498104,-0.00976877371346556,-0.0691114819911582,0.1542089177951593,0.028463090565006177,0.00796492198576459,0.11840609405438593,-0.056955065016501535,0.23815771416157827,-0.11965403182103967,0.09974550914294249,0.21770750275117462,-0.20912309540918553,-0.0521306540944726,0.17342824939165527,0.1757114314625508,-0.02603921314023853,-0.11154955085096047,0.1451455114283324,0.17970541095102,-0.17683787280771487,-0.18279748306608873,0.03420208296979797,0.09555962741219279,-0.04540946611068636,0.10314128481036085,-0.10782433148292273,-0.32108670559431646,-0.06436346091594021,0.009600918837812621,-0.041882447666752205,-0.17591773351098886,-0.27568095370221835,-0.07805720916245786,0.1362964992200226,0.19073604685521686,0.18033769897933857
K168,-0.15695226057972822,-0.2219324664540713,0.09553500988200306,0.1221708758390195,0.07697853922013553,-0.38743484445818055,-0.16675806495435425,-0.005711077697374126,0.09372362222595745,0.14760291421033908,0.02774929749366409,0.06363115512541598,0.01632512547176563,0.13188902206083059,0.060184333120101775,0.01264561070212875,-0.05162470577820852,0.01563760732841776,0.09321831537662298,0.05145284511149777,0.07325759128049193,0.2582923993289512,0.05100820042713177,-0.124844459481179,0.16997482754031387,-0.2628084465986324,-0.20802585019097072,0.06460518615919343,0.0993365328794518,-0.239504008285587,-0.07364060161322665,-0.11658918479287103,-0.09361938518464413,0.1815149813601319,0.13590677009980123,-0.003678433975777822,-0.1050238475709824,-0.2596250657778717,0.2731935674002462,0.11390186186937656,-0.1359382487740342,0.13842560112218807,-0.013508551524984784,-0.055229757566035355,0.08371937114691848,-0.14263814985141107,-0.06612664823963346,0.023364831243291338,-0.09607682027922816,0.12870843120227862
K169,0.262248085760254,-0.10583531456984946,-0.2336331642813927,-0.28086348242663955,-0.021112133782990705,-0.09304839820430069,0.029164836244581587,0.01860473428670297,-0.22494681075056688,-0.25464573316256245,0.041522292353355444,0.019001973761851882,-0.059746378598154896,-0.2325132531001904,0.06614074783371528,0.1784597928486465,0.0390036216897104,-0.11890877349473959,0.006251099206216125,-0.19167900229871018,0.14844210811534336,0.011483550755660068,-0.24808949522048013,-0.04218751730255061,0.06500567740615645,-0.046729798482800365,-0.038710834887223815,-0.17179545744727043,0.0794911733073702,-0.09098649301393504,-0.30257011778510146,-0.05209099547345779,0.1376647830594448,-0.0542899391195648,0.2438560824517161,0.06018834703739181,0.047531042592040426,-0.018015517043167388,-0.009581214598180432,-0.03696088069533416,-0.04241131564958141,0.07448579104655191,-0.13130616172525797,-0.1509582973687366,-0.15759511576917298,0.28702509418436356,0.07441223224852653,0.0427231973086009,-0.1483795238971219,0.08746094630857826
K17,0.047135773667011334,0.11874094809578234,-0.28401899796537755,0.053286488881469696,0.17488844038807033,-0.17232025284123467,0.23826746294283538,0.059691644482562846,-0.10043295437501217,-0.007944622755184204,0.07953684874038623,0.010827400909118145,0.07674885970594578,-0.13115519719671842,0.02412641400906968,-0.2013916821501022,-0.015844785947222828,-0.12876679189571957,-0.10478042966540888,0.17608851320042937,0.15546334243234602,0.08677519477929925,-0.15560617479204153,-0.04507418582043803,0.1728126767788591,0.020188381522255463,0.3304017031302543,0.05603036643444725,0.027358490494398598,-0.04403540095424079,0.019023662492553533,-0.021720196611871086,0.1008741141550189,0.13628769409804764,-0.11196867539414254,-0.1896417165117813,-0.26157791383756607,0.07236625787494905,-0.1571808574730496,-0.3066915271428905,0.05535523543498757,0.3551419805868541,-0.0008648359268298288,0.11944778659612769,0.011657058198976377,-0.014087394340940274,0.13092767976754163,-0.04135126213071284,0.03809155812071186,0.045827684780519934
K170,-0.018939974666148003,0.034797181663635636,-0.15867676409062387,0.026039744685257618,-0.06886251828195679,-0.12439296927978442,0.11927421124894287,-0.24983967178552377,0.09176224229711875,0.11121214966847591,-0.1429204468942812,-0.13328318445725096,-0.036236183947461295,0.04582394253487935,-0.02483517399976831,0.07044322864980097,0.28644080189432597,-0.08249147871963616,-0.2786745300742784,0.13419225405479632,0.27349718771576137,0.06381519191623182,-0.17673238734171146,-0.02012945970340474,-0.18173253633080075,0.10444819537644291,-0.2195514315686835,-0.048763540887671764,-0.16318017733351464,0.020605889839833663,-0.059521505886708195,0.028719491190190655,0.003631415075117084,-0.16030780768842415,0.10185209370282518,-0.007923218171427614,-0.16061163343625387,0.36409541018923397,0.0774081758712786,-0.02490106777538883,0.22993590362175262,0.2992497045186372,-0.02361570368809637,0.05644354116465646,-0.16052614053446237,-0.023915199192650054,-0.03234276552428895,0.030029843876041573,0.05406538765341931,0.09095834405959734
K171,0.03786489592686544,-0.1929142026323197,-0.14953106417401596,-0.08706209552936155,-0.04497092738275286,0.16742557826458404,-0.18529738891193948,-0.056948882041601215,0.15184818259917532,-0.04778110773300349,0.07336052767561012,-0.02223399205830273,0.04091467191011958,-0.0364037720676494,0.10628716702014397,-0.24618223419341298,-0.057888476760874726,0.04725453633882741,0.08503656429807636,0.23788025502021043,-0.062304085243911775,0.2357338695450658,-0.10500584784869418,0.21170045344569655,0.13025147992369465,-0.14554631979714322,0.04892223031428209,-0.008163684122869152,0.09967779312757317,-0.03557507558231521,-0.04895521090253727,0.2181452803865143,-0.015729736624610215,0.13167836020845247,-0.03590647681278534,0.26555851478163844,-0.10808274298599364,-0.09785482647307155,0.24290960764556085,-0.07089572657788051,0.2551078704387612,0.14210180636547087,-0.02464117820941579,-0.28892190346555224,-0.0030780904073605224,0.016193268750655482,0.18597914483743072,0.25309592120421637,-0.1091427299010527,0.1276566445782496
K172,0.11791861948573527,0.16537103144047646,0.07682866520362977,-0.2992631315091897,-0.023944534956952243,-0.17804946157093496,-0.03121364743310568,0.15098042997028843,0.04701184209973322,0.17687602386033233,0.052650949853968176,-0.20002138907694275,-0.3883642038560192,0.022925626230314713,-0.03295772475345765,-0.15050923491045567,-0.2620003301051791,-0.1131952722219712,-0.029963552123290823,0.10258580159559136,0.029060692546846432,0.24774044381386304,-0.15954619367517311,0.13573681158435616,0.007286891537123822,0.1070214180504604,-0.06724991516796779,0.1651041471810682,0.04548262069629402,-0.10467597198225016,-0.0018524338858473025,-0.03690621453526405,0.07536330455347126,-0.18175758259189434,-0.004521952500195036,0.06090142958036673,0.0050876036400763856,0.20751111140583015,0.11924672050098825,-0.0011524990064266862,0.03338333846304173,0.04555052972654275,0.06213273922586905,-0.2812626915282825,-0.04645344183633158,-0.22869416326677702,0.19693323758642695,-0.009374537736459848,-0.029786299525245256,0.1381614913428664
K173,0.05786344220596764,-0.15463614352930055,-0.00971486488946354,-0.04592179976582092,-0.23902143228576866,-0.09457592632318654,-0.025147173170017224,-0.015749623562395326,-0.203083060331073,0.15779166960514315,-0.013989314581790585,0.00514521120740645,0.05489259552212972,-0.10797567428434716,0.06252611174186624,-0.050293524541783846,-0.12284271709170133,0.07856902102431113,0.20437678450358007,0.0993101111162271,0.12645873346863284,-0.07133248910644663,-0.21889260925253795,0.2041662883866105,0.2814925959408818,0.21138259256394484,-0.046006605321434905,-0.15819842389432956,-0.1460110075646245,-0.23069107640548736,-0.014712128006794969,0.2199966809666857,-0.019409439278918313,0.04142177721382605,0.18847289082561713,-0.0553657892292999,0.2788916433880559,0.2729402590449154,-0.017963788567697352,-0.07912895645680891,0.09552977624027896,-0.04761498625701439,-0.1584616067180595,0.17554469741734263,0.16666753530773176,0.02130691058414148,-0.17302725800745106,-0.16845949280655573,0.01469166804955398,-0.06848818466301917
K174,-0.05185337995071527,0.1553601343840154,0.11145884929252792,0.2095069973729975,-0.15059579823969388,-0.05217241733876219,0.11538135951170149,0.06811743743368348,0.2329544083732293,0.06393052314966417,0.2809518888704974,0.08209419080332873,0.16147204190156153,-0.049181152332952574,0.0021719600626297713,0.13848292308401103,0.24520698628034887,0.11085952549439619,-0.012643878207096898,0.20938421724878256,-0.33322737411853276,-0.2162098918984195,0.10362289879584477,0.0021447702028889177,0.09205095285894409,0.009791313210093657,0.08679588828662285,-0.12380654927309442,0.0867260180161269,0.15117215720627106,0.18554965011249733,0.3061030764732082,0.03710815482700368,0.0416403106620325,-0.23155460894300717,-0.08078583487602956,-0.029352581662350143,0.1596709098365025,-0.09288516545567226,0.12106061932955307,-0.00024653546863808454,-0.02693332145734357,0.03783717671273907,-0.05946408758229403,-0.06522278634938761,-0.25916371457048953,-0.037694312931742795,-0.07296536603742307,-0.07844008411454281,0.06337357144863223
K175,0.09965568324893301,0.0351326744910274,0.15061337443517744,0.08708659931799655,-0.0446440930588447,-0.07003343704097695,0.047332221900833304,0.08681503094525156,0.2115037524411805,0.18023292547267938,-0.08192870418099674,-0.015434273267026953,0.10152975047438838,0.16159563445088715,0.14207273661292674,-0.0096651689130754,-0.18974251660267125,-0.1511461548064785,0.041251383311949275,0.051781156074040026,-0.1662379773213622,0.006743698064588416,0.09550871971952382,-0.17418875388930713,0.16719390953843313,-0.057123138952006706,0.1902857786744921,-0.08071513648764742,-0.15533571291845594,-0.06931937412214767,-0.014396585490500572,-0.05877976368101825,-0.03268254623604043,0.05053129449809542,-0.02590065207572443,-0.010003273850586285,-0.25861807025603906,0.05926668642083169,-0.013497091269042407,0.24364874270231968,-0.14216287002609632,-0.27360790152067077,0.0935181443843926,0.05243199426915987,-0.1525830644049869,-0.23146186070137875,0.23261902337396953,0.2139649261902086,-0.3763698402283277,-0.06933239249550481
K176,0.23950398701607087,-0.06851305432513523,-0.07060698660978955,-0.040693612337916775,-0.16131509189700022,-0.24534463227197967,0.15147847672950834,-0.2652282442982202,0.035586336616052816,0.12759303994496943,-0.20885479151896158,-0.1330170798845928,0.17459598593170605,0.07669168427727036,-0.08883733551096956,0.1730229566133149,0.17363988453973755,0.03872100729566363,-0.12954752602579422,-0.059501914231274586,0.04121565585456019,-0.02714182740002535,0.13513103080750394,-0.2201590798170255,-0.2150485407229881,0.026030260276477497,-0.07074114226408697,-0.09024237487572574,-0.25445178174931793,0.0028129612476546417,-0.007592308030389856,0.09404612956703987,0.009916700157828813,-0.01908385834549247,0.1693893108198652,-0.18888514165210168,0.07719503054778865,-0.24050493914361473,-0.12065375041617751,-0.17452085371509235,0.11253409984733309,-0.009413584022778964,-0.0019433339489720667,-0.15927666663318588,-0.04313071135772977,-0.10987492913773712,0.05518534031867914,-0.14263394523838718,0.19137878435519737,-0.24114296009138345
K177,-0.10290379869423516,0.213993874300314,-0.05551931685047361,-0.1677652600024611,0.027951322538893632,-0.060655256851704406,-0.10664861675708104,-0.13982206608092698,0.35321655929534657,-0.03209548613188615,-0.2456829801895247,0.1905823045666997,0.07796648622498567,-0.09779338851880882,-0.11905658732214566,0.08592833834082171,-0.031504288975138836,-0.2457353505061034,0.22803379921333333,-0.05537280716713711,0.19081987411892223,0.16311541051318465,-0.12771872496020173,0.1318246093112357,-0.08311750103881296,-0.23817217342541833,-0.05417444487285718,0.050734535952367446,-0.059040530632487515,-0.039176272414426075,0.14590749705740766,0.013587558134238046,-0.10759636176501466,0.08957199091294782,0.025221409232641562,-0.3217313479889441,0.0546535128275352,0.049993392398830654,0.0025672532584633673,0.11377200336218413,-0.08579064179250202,0.04293398021473156,-0.19992821652198514,0.051940628336487465,0.24919072496395953,-0.12693363970006866,-0.09694309115669736,-0.0905908116141033,0.016586462874383912,-0.13563271010115022
K178,0.07035816540866065,0.14144207886380486,0.08924848327048655,-0.29536674012052355,0.16621627750458703,0.15656228362937727,0.1386563670328963,0.06227337647484146,0.03677676580019513,0.1724331775434261,0.32127174428276484,-0.1591800494306707,0.1800721589397762,-0.0144002720242754,-0.021658432800283442,-0.2566365654436245,-0.04756649274254108,-0.16656657446045536,-0.07747453949300517,-0.183422813168609,-0.07497820085207783,-0.06782992872837229,0.016160334520710327,-0.2697009967343878,-0.2414353419986372,0.06044814855095598,-0.13319081798998567,0.17947160870760268,0.037625312737493914,0.10134347152639292,0.23561861424355934,-0.05172894984807175,-0.09595271730914703,0.14559472131388654,0.08510068292963512,-0.03128854348107769,0.23240602731465992,-0.03544976423395037,0.005473964062064172,0.0035446790967508398,-0.15609904102318162,0.012958574801680398,0.233291620479673,0.07432011667855729,0.005188318796255507,-0.02701891976475143,0.0552625328737376,0.12522856433923119,0.10175713513119625,-0.05542919439392367
K179,0.049877723695490934,0.07370584489268563,-0.15467807968921343,0.02583568959101276,-0.33191818753876473,0.07410420876270876,0.10141094513055167,0.11480299311225826,-0.060668578813018105,0.0474612876032273,0.21868103904605546,0.2171170200692933,-0.004480142526120875,0.02139575078423573,0.17060609385555078,-0.2304828524657811,-0.04961575076356311,0.20510772582308945,0.14976459272305498,0.056708991538882154,-0.2312553851784243,-0.007664870357033311,-0.09059514969895237,0.05083867813512047,-0.12429389796139147,-0.15752354508488173,-0.31710780923687343,0.187636361149403,-0.06139400591956435,0.02413336876710127,-0.0003437145365438504,-0.1639291626647537,-0.19335853049175306,-0.15438938348331172,-0.11105923559511431,0.056300866259668396,-0.12220084660107493,0.2682140205577836,0.15774279235924346,0.12414230053679647,-0.01837639134574225,0.2325528216604035,-0.033479805599556024,-0.004800913000590622,0.02610352089720923,0.10778115611897013,0.0978119627467753,-0.07296647281978808,-0.08185351002355903,0.09827189553709155
K18,-0.1071252777528582,0.1590694967383535,-0.028054004408184605,-0.1211803127549321,0.08602692299556401,-0.14406527076772016,0.004518720921849653,-0.0014621898023102376,0.1741184348107101,0.07611571123155952,-0.004012959461197894,0.13112512154763248,0.222913482763472,0.0894423557102295,0.0016599956939130826,-0.21034699716253913,-0.17078615084698673,-0.048941398657519945,-0.09773252049033948,-0.029980001442785332,0.00908355882978018,0.08493383362196419,-0.011304159698190038,0.07800833470664909,0.010338180341935182,-0.3167571149358323,-0.1506181751545994,-0.023103786834911752,-0.19396907202668026,0.09619585414267887,0.24544896157556947,0.19542294185724032,-0.034224597444977876,0.23903118296735745,0.023838153290087895,-0.05405020844962588,-0.09835633834887067,-0.04849964402301234,-0.062242394389409234,0.02732546926246132,0.025747310451826138,0.0004884155329506764,0.07006105616337936,0.19091473646477217,0.1522567040822816,-0.23809666256635317,-0.4095096845695115,0.14981396524340893,-0.21917280725051533,-0.03604011399308377
K180,0.10598338582930973,-0.05828656554686971,-0.23518870449444151,-0.03071999151990992,0.09239372929159195,0.26752573138224894,-0.17751278917991098,-0.0632091068754808,-0.05770161766603285,0.2009025316024085,-0.005177613405084766,-0.13444717871108564,0.08278717708869751,-0.05995912591269534,-0.18142907077097467,-0.1322906853678867,0.25694943692607664,0.05693192307882014,0.015967829094927073,-0.03702912409039083,0.04329046381465765,0.04152521705033555,0.04329342534288384,0.017017685878551164,0.12873808690762203,0.003423590000398695,-0.14491046915128536,-0.09074850615711579,-0.2932499629904735,0.30033270843936044,0.12784252770945423,-0.12299941520355231,-0.041763623520408535,-0.09437202544115872,0.22857384527725755,-0.21039666135707114,0.01696300298846914,-0.016081599390785645,0.12252051921095308,-0.01541203338870487,-0.2605304789211222,-0.0372105104198332,-0.1440544929517103,0.011792055910982422,0.2125156090060748,-0.25774713001641614,-0.11857658965634076,-0.08189775507188686,-0.05654989767104989,0.10967143681924538
K181,-0.02677551730150566,0.06415264306962119,-0.09654817593501205,0.03547416491572067,0.12000347931254922,-0.11298375101541037,0.12055281379564302,0.008080398061186433,0.1613001394710205,-0.03107632095092225,0.058820807974353156,-0.006264983190674144,-0.014844229062990565,0.03994940464386205,0.08282201111265731,-0.19279068372649127,0.22118995261455057,-0.2869204357990854,-0.10565709200129342,-0.014544421369068894,0.06362085591565866,0.2431817478183582,-0.28670882413496085,-0.07833022294573685,-0.3281411620736639,0.004878835755359865,0.04191704129429841,0.24543790872789722,0.018612284813616188,0.1610787215711096,0.09007803361050193,-0.06715281190326208,-0.21738326926896376,0.04242907319828703,-0.23021082404771168,0.1998326415255122,-0.025003953904022432,0.18439944026994046,-0.07409048398227261,0.04147997950010008,0.03229965002840039,-0.006949688028460685,-0.0667534136182378,0.060550567170622994,-0.14289425631707034,-0.18659924087814928,0.1917511001082929,0.11219202173872475,0.010166169162596307,0.2569085730314569
K182,-0.035996024250997884,0.17781250330638101,0.02360262459831891,-0.13775841275845138,0.24843415192738183,0.13318238969168036,-0.01626899530546927,0.0977544622528876,-0.054270313330868174,0.11146345099185276,-0.32143542018360943,-0.1370930570660685,0.1316430049367251,-0.03356147890482779,0.027900147545135482,-0.1810499334838563,0.2484108689822122,0.16004425861430788,-0.02697834292427476,-0.054403725869200247,0.13841088927017872,0.2665057649730392,0.12821507960142725,0.2919579109972099,-0.12399274173524252,-0.11015110669231243,-0.1598307112964576,0.05938638826106551,0.023606585595566915,-0.020426962932014268,0.10878956088886692,0.16566334070851213,-0.20509653873678338,-0.08025163096364768,0.11025283928992693,-0.06287864504542401,-0.10730375374212081,0.13692314873420175,-0.17334896592546598,-0.04054171771838614,0.04417999143112903,-0.07713926585909452,0.10528050855989743,-0.07647478096715377,0.18936232599318245,-0.016904218271592726,0.09023961051776225,0.10028885134754696,-0.0843609187053665,-0.27605254013483566
K183,0.05014813080387514,0.01004869760315233,0.07726456466649978,-0.03148925323813993,-0.059833126047242356,0.2791949011724534,-0.20466978866369617,0.10202538453440317,-0.07987456546931997,-0.046676095463208764,-0.04408000183120215,-0.11168422555310595,0.07940504355907065,0.19331133613171125,0.06533591289699452,0.014370980370475015,-0.1371236537173609,0.07184312571108743,0.29975101434380363,-0.05291980389390637,-0.05226492848330639,-0.07799618098756951,-0.0680327582620958,-0.3816200832102322,0.05630337769391249,-0.11753897364948476,-0.2238403253887785,0.10469983536242808,-0.1504097127070496,-0.04707789077186936,0.20384801600240293,-0.19589303082932938,-0.21304424321661822,0.037435860262437004,0.15978856038348976,-0.2188469438675723,0.05667235514887201,0.08076389787361875,-0.2862408927574766,0.11099850528442551,0.12185570363731359,-0.04334085737585533,0.1740868395759886,0.15797703032385932,0.014334272316485572,-0.06275476466319216,-0.13523138515799535,-0.005221648599628531,0.0792013556613241,-0.04506335220128217
K184,-0.29572059141937246,0.17073249220262438,0.025598588365133818,-0.051086566243080604,0.11534892814958515,0.2051726148807478,-0.37705691348930287,0.058439428732628695,-0.19198605477703104,0.06716595528319502,0.017215331348767866,0.08555055216348624,-0.06718440604556901,-0.2520843778506474,-0.0606066379746726,0.05475001967826794,0.13664267694964097,-0.15769487449137556,0.13821286822214943,-0.0871850234424112,0.04877535577383469,-0.06861709775855453,0.024514940214936273,0.12002114262395225,-0.16512089311758688,-0.09149582794912857,0.02489065788287869,0.3231842619786713,-0.11616057129341549,0.2745434918560016,0.269737871972857,-0.01309528913446065,-0.04012277635818469,-0.09313212115026302,-0.009178103927133202,-0.189304078387911,-0.010259584517728392,0.20143714101026536,-0.0822345180504758,-0.03239458520118881,-0.22892470398563272,0.05033802563220558,0.03559164710556588,0.008572510073776806,-0.029178700430111757,-0.0393968169638092,0.06754137248996894,-0.00387788785719713,0.04238617771449119,0.028930519608604797
